{"learner":{"attributes":{},"gradient_booster":{"model":{"gbtree_model_param":{"num_trees":"4","size_leaf_vector":"0"},"tree_info":[0,0,0,0],"trees":[{"base_weights":[2.18596185597164094e-09,-3.76773595809936523e-01,4.55630868673324585e-02,1.12075649201869965e-01,-1.93485423922538757e-01],"default_left":[false,false,false,false,false],"id":0,"leaf_child_counts":[1,0,2,0,0],"left_children":[1,-1,3,-1,-1],"loss_changes":[4.20947641134262085e-01,0.00000000000000000e+00,3.69498044252395630e-01,5.97973287105560303e-01,6.13317489624023438e-01],"parents":[2147483647,0,0,2,2],"right_children":[2,-1,4,-1,-1],"split_conditions":[-1.45796775817871094e+00,-5.65160401165485382e-02,8.68250608444213867e-01,1.68113484978675842e-02,-2.90228147059679031e-02],"split_indices":[3,0,1,0,0],"sum_hessian":[2.25207920074462891e+01,1.64538443088531494e+00,2.08754062652587891e+01,1.67469234466552734e+01,4.12848377227783203e+00],"tree_param":{"num_feature":"4","num_nodes":"5","size_leaf_vector":"0"}},{"base_weights":[2.18596185597164094e-09,-3.76773595809936523e-01,4.55630868673324585e-02,1.12075649201869965e-01,-1.93485423922538757e-01],"default_left":[false,false,false,false,false],"id":1,"leaf_child_counts":[1,0,2,0,0],"left_children":[1,-1,3,-1,-1],"loss_changes":[4.20947641134262085e-01,0.00000000000000000e+00,3.69498044252395630e-01,5.97973287105560303e-01,6.13317489624023438e-01],"parents":[2147483647,0,0,2,2],"right_children":[2,-1,4,-1,-1],"split_conditions":[-1.45796775817871094e+00,-5.65160401165485382e-02,8.68250608444213867e-01,1.68113484978675842e-02,-2.90228147059679031e-02],"split_indices":[3,0,1,0,0],"sum_hessian":[2.25207920074462891e+01,1.64538443088531494e+00,2.08754062652587891e+01,1.67469234466552734e+01,4.12848377227783203e+00],"tree_param":{"num_feature":"4","num_nodes":"5","size_leaf_vector":"0"}},{"base_weights":[2.31542762740843955e-09,-1.12662151455879211e-01,3.53309124708175659e-01,-4.52967911958694458e-01,-4.28877249360084534e-02,-1.19008123874664307e-01,4.98231500387191772e-01],"default_left":[false,false,false,false,false,false,false],"id":2,"leaf_child_counts":[0,2,2,0,0,0,0],"left_children":[1,3,5,-1,-1,-1,-1],"loss_changes":[1.03438735008239746e+00,4.48428511619567871e-01,4.89362835884094238e-01,0.00000000000000000e+00,2.74164468050003052e-01,0.00000000000000000e+00,0.00000000000000000e+00],"parents":[2147483647,0,0,1,1,2,2],"right_children":[2,4,6,-1,-1,-1,-1],"split_conditions":[5.69312453269958496e-01,-1.49666213989257812e+00,-3.32068562507629395e-01,-6.79451897740364075e-02,-6.43315911293029785e-03,-1.78512185811996460e-02,7.47347250580787659e-02],"split_indices":[1,1,0,0,0,0,0],"sum_hessian":[2.39866485595703125e+01,1.87036170959472656e+01,5.28303003311157227e+00,2.24795222282409668e+00,1.64556655883789062e+01,1.28239238262176514e+00,4.00063753128051758e+00],"tree_param":{"num_feature":"4","num_nodes":"7","size_leaf_vector":"0"}},{"base_weights":[2.31542762740843955e-09,-1.12662151455879211e-01,3.53309124708175659e-01,-4.52967911958694458e-01,-4.28877249360084534e-02,-1.19008123874664307e-01,4.98231500387191772e-01],"default_left":[false,false,false,false,false,false,false],"id":3,"leaf_child_counts":[0,2,2,0,0,0,0],"left_children":[1,3,5,-1,-1,-1,-1],"loss_changes":[1.03438735008239746e+00,4.48428511619567871e-01,4.89362835884094238e-01,0.00000000000000000e+00,2.74164468050003052e-01,0.00000000000000000e+00,0.00000000000000000e+00],"parents":[2147483647,0,0,1,1,2,2],"right_children":[2,4,6,-1,-1,-1,-1],"split_conditions":[5.69312453269958496e-01,-1.49666213989257812e+00,-3.32068562507629395e-01,-6.79451897740364075e-02,-6.43315911293029785e-03,-1.78512185811996460e-02,7.47347250580787659e-02],"split_indices":[1,1,0,0,0,0,0],"sum_hessian":[2.39866485595703125e+01,1.87036170959472656e+01,5.28303003311157227e+00,2.24795222282409668e+00,1.64556655883789062e+01,1.28239238262176514e+00,4.00063753128051758e+00],"tree_param":{"num_feature":"4","num_nodes":"7","size_leaf_vector":"0"}}]},"name":"gbtree"},"learner_model_param":{"base_score":"0.500000","num_class":"0","num_feature":"4"},"objective":{"lambda_rank_param":{"fix_list_weight":"0","num_pairsample":"1"},"name":"rank:ndcg"}},"version":[1,0,0]}