{"learner":{"attributes":{},"gradient_booster":{"model":{"gbtree_model_param":{"num_trees":"4","size_leaf_vector":"0"},"tree_info":[0,0,0,0],"trees":[{"base_weights":[-5.37645816802978516e-01,-4.36891138553619385e-01,-6.70873284339904785e-01,-1.25496864318847656e+00,-4.07270163297653198e-01,-6.88224375247955322e-01,4.64901357889175415e-01],"default_left":[false,false,false,false,false,false,false],"id":0,"leaf_child_counts":[0,2,2,0,0,0,0],"left_children":[1,3,5,-1,-1,-1,-1],"loss_changes":[6.49523925781250000e+00,6.53602600097656250e+00,4.57461547851562500e+00,2.30323791503906250e-01,6.39891815185546875e+00,4.40366363525390625e+00,2.28362298011779785e+00],"parents":[2147483647,0,0,1,1,2,2],"right_children":[2,4,6,-1,-1,-1,-1],"split_conditions":[1.89942225813865662e-01,-1.81951093673706055e+00,2.12066125869750977e+00,-1.88245311379432678e-01,-6.10905252397060394e-02,-1.03233657777309418e-01,6.97352066636085510e-02],"split_indices":[1,0,0,0,0,0,0],"sum_hessian":[5.04713470458984375e+02,2.89816162109375000e+02,2.14897293090820312e+02,8.68150043487548828e+00,2.81134674072265625e+02,2.12051849365234375e+02,2.84543561935424805e+00],"tree_param":{"num_feature":"4","num_nodes":"7","size_leaf_vector":"0"}},{"base_weights":[-5.37645816802978516e-01,-4.36891138553619385e-01,-6.70873284339904785e-01,-1.25496864318847656e+00,-4.07270163297653198e-01,-6.88224375247955322e-01,4.64901357889175415e-01],"default_left":[false,false,false,false,false,false,false],"id":1,"leaf_child_counts":[0,2,2,0,0,0,0],"left_children":[1,3,5,-1,-1,-1,-1],"loss_changes":[6.49523925781250000e+00,6.53602600097656250e+00,4.57461547851562500e+00,2.30323791503906250e-01,6.39891815185546875e+00,4.40366363525390625e+00,2.28362298011779785e+00],"parents":[2147483647,0,0,1,1,2,2],"right_children":[2,4,6,-1,-1,-1,-1],"split_conditions":[1.89942225813865662e-01,-1.81951093673706055e+00,2.12066125869750977e+00,-1.88245311379432678e-01,-6.10905252397060394e-02,-1.03233657777309418e-01,6.97352066636085510e-02],"split_indices":[1,0,0,0,0,0,0],"sum_hessian":[5.04713470458984375e+02,2.89816162109375000e+02,2.14897293090820312e+02,8.68150043487548828e+00,2.81134674072265625e+02,2.12051849365234375e+02,2.84543561935424805e+00],"tree_param":{"num_feature":"4","num_nodes":"7","size_leaf_vector":"0"}},{"base_weights":[-3.77470612525939941e-01,3.31088960170745850e-01,-3.92237067222595215e-01,8.17872881889343262e-01,1.18046358227729797e-01,-3.00728023052215576e-01,-4.70518797636032104e-01],"default_left":[false,false,false,false,false,false,false],"id":2,"leaf_child_counts":[0,2,2,0,0,0,0],"left_children":[1,3,5,-1,-1,-1,-1],"loss_changes":[5.42109680175781250e+00,1.03034389019012451e+00,3.41049194335937500e+00,0.00000000000000000e+00,1.19803142547607422e+00,4.23731803894042969e+00,4.69757843017578125e+00],"parents":[2147483647,0,0,1,1,2,2],"right_children":[2,4,6,-1,-1,-1,-1],"split_conditions":[-2.07929229736328125e+00,-5.09094715118408203e-01,-8.72411578893661499e-02,1.22680939733982086e-01,1.77069548517465591e-02,-4.51092049479484558e-02,-7.05778226256370544e-02],"split_indices":[3,0,3,0,0,0,0],"sum_hessian":[5.04713470458984375e+02,9.86623668670654297e+00,4.94847229003906250e+02,2.13924217224121094e+00,7.72699451446533203e+00,2.30380615234375000e+02,2.64466613769531250e+02],"tree_param":{"num_feature":"4","num_nodes":"7","size_leaf_vector":"0"}},{"base_weights":[-3.77470612525939941e-01,3.31088960170745850e-01,-3.92237067222595215e-01,8.17872881889343262e-01,1.18046358227729797e-01,-3.00728023052215576e-01,-4.70518797636032104e-01],"default_left":[false,false,false,false,false,false,false],"id":3,"leaf_child_counts":[0,2,2,0,0,0,0],"left_children":[1,3,5,-1,-1,-1,-1],"loss_changes":[5.42109680175781250e+00,1.03034389019012451e+00,3.41049194335937500e+00,0.00000000000000000e+00,1.19803142547607422e+00,4.23731803894042969e+00,4.69757843017578125e+00],"parents":[2147483647,0,0,1,1,2,2],"right_children":[2,4,6,-1,-1,-1,-1],"split_conditions":[-2.07929229736328125e+00,-5.09094715118408203e-01,-8.72411578893661499e-02,1.22680939733982086e-01,1.77069548517465591e-02,-4.51092049479484558e-02,-7.05778226256370544e-02],"split_indices":[3,0,3,0,0,0,0],"sum_hessian":[5.04713470458984375e+02,9.86623668670654297e+00,4.94847229003906250e+02,2.13924217224121094e+00,7.72699451446533203e+00,2.30380615234375000e+02,2.64466613769531250e+02],"tree_param":{"num_feature":"4","num_nodes":"7","size_leaf_vector":"0"}}]},"name":"gbtree"},"learner_model_param":{"base_score":"0.500000","num_class":"0","num_feature":"4"},"objective":{"name":"reg:squarederror","reg_loss_param":{"scale_pos_weight":"1"}}},"version":[1,0,0]}