{"learner":{"attributes":{},"gradient_booster":{"model":{"gbtree_model_param":{"num_trees":"4","size_leaf_vector":"0"},"tree_info":[0,0,0,0],"trees":[{"base_weights":[-3.55327576398849487e-02,3.79469320178031921e-02,-5.19912004470825195e-01,-3.92615981400012970e-02,4.59762871265411377e-01,-7.19785213470458984e-01,2.02386453747749329e-01,-1.02456115186214447e-01,7.16486752033233643e-01,-3.27995151281356812e-01,6.41171157360076904e-01,4.73640829324722290e-01,-8.64440321922302246e-01,-4.21474099159240723e-01,8.67822825908660889e-01,-5.52560500800609589e-02,-1.18857514858245850e+00,1.03954422473907471e+00,-4.05999362468719482e-01,4.64320898056030273e-01,-8.10593962669372559e-01,1.01142024993896484e+00,3.56967717409133911e-01,-9.75604355335235596e-01,1.79265309125185013e-02,-9.11749601364135742e-01,1.50557584129273891e-03,1.37565934658050537e+00,3.95303964614868164e-01,-4.43502187728881836e-01,7.02496409416198730e-01,-2.01665848493576050e-01,-1.06500470638275146e+00,-1.30544531345367432e+00,-7.66648277640342712e-02,-7.48070105910301208e-02,4.37421649694442749e-01,5.99322617053985596e-01,5.30102066695690155e-02,2.56018806248903275e-02,-6.58793687820434570e-01,9.42252755165100098e-01,2.50859171152114868e-01,-1.13643133640289307e+00,-3.13320696353912354e-01],"default_left":[true,true,true,true,true,true,true,true,true,true,true,false,true,false,false,true,false,true,false,false,false,false,true,true,false,true,true,false,true,true,true,false,true,false,false,false,false,false,false,false,false,false,false,false,false],"id":0,"leaf_child_counts":[0,0,0,0,0,1,2,1,1,2,1,0,1,0,0,0,0,1,0,0,0,0,0,1,0,2,2,0,2,2,2,0,2,0,0,0,0,0,0,0,0,0,0,0,0],"left_children":[1,3,5,7,9,11,13,15,17,19,21,-1,23,-1,-1,25,-1,27,-1,-1,-1,-1,29,31,-1,33,35,-1,37,39,41,-1,43,-1,-1,-1,-1,-1,-1,-1,-1,-1,-1,-1,-1],"loss_changes":[4.37132263183593750e+00,3.50576567649841309e+00,2.48042440414428711e+00,4.44066095352172852e+00,2.58935046195983887e+00,2.63409185409545898e+00,2.14493870735168457e+00,4.30526304244995117e+00,3.02623295783996582e+00,1.82084882259368896e+00,1.09844064712524414e+00,0.00000000000000000e+00,1.17956447601318359e+00,0.00000000000000000e+00,0.00000000000000000e+00,4.02481317520141602e+00,0.00000000000000000e+00,7.24537849426269531e-01,0.00000000000000000e+00,0.00000000000000000e+00,0.00000000000000000e+00,0.00000000000000000e+00,2.90931320190429688e+00,5.14477729797363281e-01,0.00000000000000000e+00,1.59157276153564453e+00,2.64789390563964844e+00,0.00000000000000000e+00,2.06463634967803955e-01,3.64775121212005615e-01,5.15911102294921875e-01,0.00000000000000000e+00,1.38677597045898438e-01,0.00000000000000000e+00,0.00000000000000000e+00,0.00000000000000000e+00,0.00000000000000000e+00,0.00000000000000000e+00,0.00000000000000000e+00,0.00000000000000000e+00,0.00000000000000000e+00,0.00000000000000000e+00,0.00000000000000000e+00,0.00000000000000000e+00,0.00000000000000000e+00],"parents":[2147483647,0,0,1,1,2,2,3,3,4,4,5,5,6,6,7,7,8,8,9,9,10,10,12,12,15,15,17,17,22,22,23,23,25,25,26,26,28,28,29,29,30,30,32,32],"right_children":[2,4,6,8,10,12,14,16,18,20,22,-1,24,-1,-1,26,-1,28,-1,-1,-1,-1,30,32,-1,34,36,-1,38,40,42,-1,44,-1,-1,-1,-1,-1,-1,-1,-1,-1,-1,-1,-1],"split_conditions":[1.18459987640380859e+00,7.02910661697387695e-01,7.61032819747924805e-01,1.56097674369812012e+00,-8.76530170440673828e-01,-1.29552912712097168e+00,-1.41057953238487244e-01,1.31780040264129639e+00,2.26157951354980469e+00,-1.78516006469726562e+00,8.08994054794311523e-01,7.10461288690567017e-02,1.26987695693969727e+00,-6.32211193442344666e-02,1.30173429846763611e-01,-1.67383575439453125e+00,-1.78286284208297729e-01,1.78538465499877930e+00,-6.08999058604240417e-02,6.96481391787528992e-02,-1.21589101850986481e-01,1.51713043451309204e-01,9.64419722557067871e-01,-1.06082475185394287e+00,2.68897973001003265e-03,4.07505393028259277e-01,1.05295062065124512e+00,2.06348910927772522e-01,-1.06749748811125755e-02,-5.95589876174926758e-01,1.07492947578430176e+00,-3.02498787641525269e-02,2.06162118911743164e+00,-1.95816799998283386e-01,-1.14997243508696556e-02,-1.12210521474480629e-02,6.56132474541664124e-02,8.98983925580978394e-02,7.95153155922889709e-03,3.84028232656419277e-03,-9.88190546631813049e-02,1.41337916254997253e-01,3.76288779079914093e-02,-1.70464709401130676e-01,-4.69981059432029724e-02],"split_indices":[0,0,3,3,1,3,2,3,3,1,0,0,2,0,0,0,0,3,0,0,0,0,0,1,0,2,2,0,1,2,0,0,0,0,0,0,0,0,0,0,0,0,0,0,0],"sum_hessian":[1.21263122558593750e+02,1.06090927124023438e+02,1.51721954345703125e+01,9.04432601928710938e+01,1.56476697921752930e+01,1.18864707946777344e+01,3.28572535514831543e+00,8.42618408203125000e+01,6.18141460418701172e+00,2.77767634391784668e+00,1.28699932098388672e+01,1.03913915157318115e+00,1.08473310470581055e+01,1.88506102561950684e+00,1.40066432952880859e+00,8.17596435546875000e+01,2.50219821929931641e+00,4.85733842849731445e+00,1.32407641410827637e+00,1.06578195095062256e+00,1.71189451217651367e+00,4.47775745391845703e+00,8.39223575592041016e+00,9.53980159759521484e+00,1.30752944946289062e+00,4.14541578292846680e+00,7.76142272949218750e+01,2.44592285156250000e+00,2.41141557693481445e+00,2.44484138488769531e+00,5.94739484786987305e+00,1.32500481605529785e+00,8.21479701995849609e+00,2.43445706367492676e+00,1.71095883846282959e+00,6.67561187744140625e+01,1.08581056594848633e+01,1.04040038585662842e+00,1.37101519107818604e+00,1.04624176025390625e+00,1.39859962463378906e+00,3.17539739608764648e+00,2.77199721336364746e+00,7.03451490402221680e+00,1.18028199672698975e+00],"tree_param":{"num_feature":"4","num_nodes":"45","size_leaf_vector":"0"}},{"base_weights":[-3.55327576398849487e-02,3.79469320178031921e-02,-5.19912004470825195e-01,-3.92615981400012970e-02,4.59762871265411377e-01,-7.19785213470458984e-01,2.02386453747749329e-01,-1.02456115186214447e-01,7.16486752033233643e-01,-3.27995151281356812e-01,6.41171157360076904e-01,4.73640829324722290e-01,-8.64440321922302246e-01,-4.21474099159240723e-01,8.67822825908660889e-01,-5.52560500800609589e-02,-1.18857514858245850e+00,1.03954422473907471e+00,-4.05999362468719482e-01,4.64320898056030273e-01,-8.10593962669372559e-01,1.01142024993896484e+00,3.56967717409133911e-01,-9.75604355335235596e-01,1.79265309125185013e-02,-9.11749601364135742e-01,1.50557584129273891e-03,1.37565934658050537e+00,3.95303964614868164e-01,-4.43502187728881836e-01,7.02496409416198730e-01,-2.01665848493576050e-01,-1.06500470638275146e+00,-1.30544531345367432e+00,-7.66648277640342712e-02,-7.48070105910301208e-02,4.37421649694442749e-01,5.99322617053985596e-01,5.30102066695690155e-02,2.56018806248903275e-02,-6.58793687820434570e-01,9.42252755165100098e-01,2.50859171152114868e-01,-1.13643133640289307e+00,-3.13320696353912354e-01],"default_left":[true,true,true,true,true,true,true,true,true,true,true,false,true,false,false,true,false,true,false,false,false,false,true,true,false,true,true,false,true,true,true,false,true,false,false,false,false,false,false,false,false,false,false,false,false],"id":1,"leaf_child_counts":[0,0,0,0,0,1,2,1,1,2,1,0,1,0,0,0,0,1,0,0,0,0,0,1,0,2,2,0,2,2,2,0,2,0,0,0,0,0,0,0,0,0,0,0,0],"left_children":[1,3,5,7,9,11,13,15,17,19,21,-1,23,-1,-1,25,-1,27,-1,-1,-1,-1,29,31,-1,33,35,-1,37,39,41,-1,43,-1,-1,-1,-1,-1,-1,-1,-1,-1,-1,-1,-1],"loss_changes":[4.37132263183593750e+00,3.50576567649841309e+00,2.48042440414428711e+00,4.44066095352172852e+00,2.58935046195983887e+00,2.63409185409545898e+00,2.14493870735168457e+00,4.30526304244995117e+00,3.02623295783996582e+00,1.82084882259368896e+00,1.09844064712524414e+00,0.00000000000000000e+00,1.17956447601318359e+00,0.00000000000000000e+00,0.00000000000000000e+00,4.02481317520141602e+00,0.00000000000000000e+00,7.24537849426269531e-01,0.00000000000000000e+00,0.00000000000000000e+00,0.00000000000000000e+00,0.00000000000000000e+00,2.90931320190429688e+00,5.14477729797363281e-01,0.00000000000000000e+00,1.59157276153564453e+00,2.64789390563964844e+00,0.00000000000000000e+00,2.06463634967803955e-01,3.64775121212005615e-01,5.15911102294921875e-01,0.00000000000000000e+00,1.38677597045898438e-01,0.00000000000000000e+00,0.00000000000000000e+00,0.00000000000000000e+00,0.00000000000000000e+00,0.00000000000000000e+00,0.00000000000000000e+00,0.00000000000000000e+00,0.00000000000000000e+00,0.00000000000000000e+00,0.00000000000000000e+00,0.00000000000000000e+00,0.00000000000000000e+00],"parents":[2147483647,0,0,1,1,2,2,3,3,4,4,5,5,6,6,7,7,8,8,9,9,10,10,12,12,15,15,17,17,22,22,23,23,25,25,26,26,28,28,29,29,30,30,32,32],"right_children":[2,4,6,8,10,12,14,16,18,20,22,-1,24,-1,-1,26,-1,28,-1,-1,-1,-1,30,32,-1,34,36,-1,38,40,42,-1,44,-1,-1,-1,-1,-1,-1,-1,-1,-1,-1,-1,-1],"split_conditions":[1.18459987640380859e+00,7.02910661697387695e-01,7.61032819747924805e-01,1.56097674369812012e+00,-8.76530170440673828e-01,-1.29552912712097168e+00,-1.41057953238487244e-01,1.31780040264129639e+00,2.26157951354980469e+00,-1.78516006469726562e+00,8.08994054794311523e-01,7.10461288690567017e-02,1.26987695693969727e+00,-6.32211193442344666e-02,1.30173429846763611e-01,-1.67383575439453125e+00,-1.78286284208297729e-01,1.78538465499877930e+00,-6.08999058604240417e-02,6.96481391787528992e-02,-1.21589101850986481e-01,1.51713043451309204e-01,9.64419722557067871e-01,-1.06082475185394287e+00,2.68897973001003265e-03,4.07505393028259277e-01,1.05295062065124512e+00,2.06348910927772522e-01,-1.06749748811125755e-02,-5.95589876174926758e-01,1.07492947578430176e+00,-3.02498787641525269e-02,2.06162118911743164e+00,-1.95816799998283386e-01,-1.14997243508696556e-02,-1.12210521474480629e-02,6.56132474541664124e-02,8.98983925580978394e-02,7.95153155922889709e-03,3.84028232656419277e-03,-9.88190546631813049e-02,1.41337916254997253e-01,3.76288779079914093e-02,-1.70464709401130676e-01,-4.69981059432029724e-02],"split_indices":[0,0,3,3,1,3,2,3,3,1,0,0,2,0,0,0,0,3,0,0,0,0,0,1,0,2,2,0,1,2,0,0,0,0,0,0,0,0,0,0,0,0,0,0,0],"sum_hessian":[1.21263122558593750e+02,1.06090927124023438e+02,1.51721954345703125e+01,9.04432601928710938e+01,1.56476697921752930e+01,1.18864707946777344e+01,3.28572535514831543e+00,8.42618408203125000e+01,6.18141460418701172e+00,2.77767634391784668e+00,1.28699932098388672e+01,1.03913915157318115e+00,1.08473310470581055e+01,1.88506102561950684e+00,1.40066432952880859e+00,8.17596435546875000e+01,2.50219821929931641e+00,4.85733842849731445e+00,1.32407641410827637e+00,1.06578195095062256e+00,1.71189451217651367e+00,4.47775745391845703e+00,8.39223575592041016e+00,9.53980159759521484e+00,1.30752944946289062e+00,4.14541578292846680e+00,7.76142272949218750e+01,2.44592285156250000e+00,2.41141557693481445e+00,2.44484138488769531e+00,5.94739484786987305e+00,1.32500481605529785e+00,8.21479701995849609e+00,2.43445706367492676e+00,1.71095883846282959e+00,6.67561187744140625e+01,1.08581056594848633e+01,1.04040038585662842e+00,1.37101519107818604e+00,1.04624176025390625e+00,1.39859962463378906e+00,3.17539739608764648e+00,2.77199721336364746e+00,7.03451490402221680e+00,1.18028199672698975e+00],"tree_param":{"num_feature":"4","num_nodes":"45","size_leaf_vector":"0"}},{"base_weights":[-2.53210365772247314e-02,6.75819396972656250e-01,-6.63618296384811401e-02,-1.74203157424926758e-01,1.30700314044952393e+00,-3.49647521972656250e-01,3.00504434853792191e-02,-4.57428306341171265e-01,1.02555841207504272e-01,-5.03230631351470947e-01,8.12098085880279541e-02,-1.12395513057708740e+00,6.09790235757827759e-02,-7.85475037992000580e-03,-6.59594774246215820e-01,-5.87984204292297363e-01,3.56937408447265625e-01,9.81419347226619720e-03,6.09032213687896729e-01,-5.17923176288604736e-01,4.22181159257888794e-01,-7.88913443684577942e-02,-8.49566996097564697e-01,6.84545636177062988e-01,-2.92461931705474854e-01,6.89958930015563965e-02,-1.07499659061431885e+00,7.98318028450012207e-01,-1.68795973062515259e-01,4.88255247473716736e-02,-9.03172254562377930e-01,6.42857193946838379e-01,-3.07549163699150085e-02,-4.47873651981353760e-01,5.48879206180572510e-01,-7.13556185364723206e-02,-9.48355376720428467e-01,8.59049022197723389e-01,5.92794939875602722e-02,1.34042277932167053e-01,-5.14465212821960449e-01,9.52814459800720215e-01,1.45008280873298645e-01],"default_left":[true,true,true,true,false,true,true,false,false,true,true,false,true,true,true,false,true,true,true,true,true,true,true,true,false,true,false,true,false,false,false,false,false,false,false,false,false,false,false,false,false,false,false],"id":2,"leaf_child_counts":[0,1,0,2,0,0,1,0,0,0,1,0,0,0,0,0,1,1,1,2,2,2,2,2,0,2,0,2,0,0,0,0,0,0,0,0,0,0,0,0,0,0,0],"left_children":[1,3,5,7,-1,9,11,-1,-1,13,15,-1,17,19,21,-1,23,25,27,29,31,33,35,37,-1,39,-1,41,-1,-1,-1,-1,-1,-1,-1,-1,-1,-1,-1,-1,-1,-1,-1],"loss_changes":[3.54024934768676758e+00,3.87951946258544922e+00,3.16958785057067871e+00,3.43430250883102417e-01,0.00000000000000000e+00,1.98956084251403809e+00,3.18145656585693359e+00,0.00000000000000000e+00,0.00000000000000000e+00,1.68721771240234375e+00,1.79666388034820557e+00,0.00000000000000000e+00,2.40243506431579590e+00,1.59046018123626709e+00,1.76368999481201172e+00,0.00000000000000000e+00,1.62830483913421631e+00,5.18273591995239258e+00,1.21209597587585449e+00,7.66774475574493408e-01,4.13995385169982910e-01,1.44872367382049561e+00,8.85766983032226562e-01,4.68565464019775391e-01,0.00000000000000000e+00,2.96829533576965332e+00,0.00000000000000000e+00,4.73463535308837891e-01,0.00000000000000000e+00,0.00000000000000000e+00,0.00000000000000000e+00,0.00000000000000000e+00,0.00000000000000000e+00,0.00000000000000000e+00,0.00000000000000000e+00,0.00000000000000000e+00,0.00000000000000000e+00,0.00000000000000000e+00,0.00000000000000000e+00,0.00000000000000000e+00,0.00000000000000000e+00,0.00000000000000000e+00,0.00000000000000000e+00],"parents":[2147483647,0,0,1,1,2,2,3,3,5,5,6,6,9,9,10,10,12,12,13,13,14,14,16,16,17,17,18,18,19,19,20,20,21,21,22,22,23,23,25,25,27,27],"right_children":[2,4,6,8,-1,10,12,-1,-1,14,16,-1,18,20,22,-1,24,26,28,30,32,34,36,38,-1,40,-1,42,-1,-1,-1,-1,-1,-1,-1,-1,-1,-1,-1,-1,-1,-1,-1],"split_conditions":[-1.56282186508178711e+00,1.52846932411193848e-01,-6.65706872940063477e-01,-1.83298492431640625e+00,1.96050480008125305e-01,5.90991139411926270e-01,-1.45519685745239258e+00,-6.86142519116401672e-02,1.53833767399191856e-02,-1.65556144714355469e+00,-6.72950506210327148e-01,-1.68593272566795349e-01,1.56097674369812012e+00,-2.08643007278442383e+00,-5.60355782508850098e-01,-8.81976336240768433e-02,2.42549449205398560e-01,1.31833195686340332e+00,2.30148935317993164e+00,-2.35981035232543945e+00,6.50051459670066833e-02,-8.18560838699340820e-01,-1.15042686462402344e+00,-8.88267278671264648e-01,-4.38692905008792877e-02,1.30681061744689941e+00,-1.61249488592147827e-01,7.32489943504333496e-01,-2.53193974494934082e-02,7.32382899150252342e-03,-1.35475844144821167e-01,9.64285805821418762e-02,-4.61323745548725128e-03,-6.71810507774353027e-02,8.23318809270858765e-02,-1.07033429667353630e-02,-1.42253309488296509e-01,1.28857359290122986e-01,8.89192428439855576e-03,2.01063416898250580e-02,-7.71697834134101868e-02,1.42922177910804749e-01,2.17512436211109161e-02],"split_indices":[3,0,2,3,0,3,3,0,0,2,0,0,3,2,3,0,1,3,3,2,0,3,0,2,0,0,0,0,0,0,0,0,0,0,0,0,0,0,0,0,0,0,0],"sum_hessian":[1.20472007751464844e+02,5.80651760101318359e+00,1.14665489196777344e+02,2.78284001350402832e+00,3.02367758750915527e+00,2.84487323760986328e+01,8.62167587280273438e+01,1.05272042751312256e+00,1.73011958599090576e+00,2.08489532470703125e+01,7.59977865219116211e+00,1.32795178890228271e+00,8.48888092041015625e+01,5.25400924682617188e+00,1.55949449539184570e+01,1.88715338706970215e+00,5.71262502670288086e+00,7.85714874267578125e+01,6.31732320785522461e+00,2.30987715721130371e+00,2.94413208961486816e+00,4.19303512573242188e+00,1.14019098281860352e+01,3.76110577583312988e+00,1.95151948928833008e+00,7.53947372436523438e+01,3.17675089836120605e+00,5.05969572067260742e+00,1.25762760639190674e+00,1.28813481330871582e+00,1.02174222469329834e+00,1.69768714904785156e+00,1.24644505977630615e+00,2.82132196426391602e+00,1.37171304225921631e+00,1.47835886478424072e+00,9.92355060577392578e+00,2.64814925193786621e+00,1.11295640468597412e+00,6.85255203247070312e+01,6.86921262741088867e+00,3.72124361991882324e+00,1.33845186233520508e+00],"tree_param":{"num_feature":"4","num_nodes":"43","size_leaf_vector":"0"}},{"base_weights":[-2.53210365772247314e-02,6.75819396972656250e-01,-6.63618296384811401e-02,-1.74203157424926758e-01,1.30700314044952393e+00,-3.49647521972656250e-01,3.00504434853792191e-02,-4.57428306341171265e-01,1.02555841207504272e-01,-5.03230631351470947e-01,8.12098085880279541e-02,-1.12395513057708740e+00,6.09790235757827759e-02,-7.85475037992000580e-03,-6.59594774246215820e-01,-5.87984204292297363e-01,3.56937408447265625e-01,9.81419347226619720e-03,6.09032213687896729e-01,-5.17923176288604736e-01,4.22181159257888794e-01,-7.88913443684577942e-02,-8.49566996097564697e-01,6.84545636177062988e-01,-2.92461931705474854e-01,6.89958930015563965e-02,-1.07499659061431885e+00,7.98318028450012207e-01,-1.68795973062515259e-01,4.88255247473716736e-02,-9.03172254562377930e-01,6.42857193946838379e-01,-3.07549163699150085e-02,-4.47873651981353760e-01,5.48879206180572510e-01,-7.13556185364723206e-02,-9.48355376720428467e-01,8.59049022197723389e-01,5.92794939875602722e-02,1.34042277932167053e-01,-5.14465212821960449e-01,9.52814459800720215e-01,1.45008280873298645e-01],"default_left":[true,true,true,true,false,true,true,false,false,true,true,false,true,true,true,false,true,true,true,true,true,true,true,true,false,true,false,true,false,false,false,false,false,false,false,false,false,false,false,false,false,false,false],"id":3,"leaf_child_counts":[0,1,0,2,0,0,1,0,0,0,1,0,0,0,0,0,1,1,1,2,2,2,2,2,0,2,0,2,0,0,0,0,0,0,0,0,0,0,0,0,0,0,0],"left_children":[1,3,5,7,-1,9,11,-1,-1,13,15,-1,17,19,21,-1,23,25,27,29,31,33,35,37,-1,39,-1,41,-1,-1,-1,-1,-1,-1,-1,-1,-1,-1,-1,-1,-1,-1,-1],"loss_changes":[3.54024934768676758e+00,3.87951946258544922e+00,3.16958785057067871e+00,3.43430250883102417e-01,0.00000000000000000e+00,1.98956084251403809e+00,3.18145656585693359e+00,0.00000000000000000e+00,0.00000000000000000e+00,1.68721771240234375e+00,1.79666388034820557e+00,0.00000000000000000e+00,2.40243506431579590e+00,1.59046018123626709e+00,1.76368999481201172e+00,0.00000000000000000e+00,1.62830483913421631e+00,5.18273591995239258e+00,1.21209597587585449e+00,7.66774475574493408e-01,4.13995385169982910e-01,1.44872367382049561e+00,8.85766983032226562e-01,4.68565464019775391e-01,0.00000000000000000e+00,2.96829533576965332e+00,0.00000000000000000e+00,4.73463535308837891e-01,0.00000000000000000e+00,0.00000000000000000e+00,0.00000000000000000e+00,0.00000000000000000e+00,0.00000000000000000e+00,0.00000000000000000e+00,0.00000000000000000e+00,0.00000000000000000e+00,0.00000000000000000e+00,0.00000000000000000e+00,0.00000000000000000e+00,0.00000000000000000e+00,0.00000000000000000e+00,0.00000000000000000e+00,0.00000000000000000e+00],"parents":[2147483647,0,0,1,1,2,2,3,3,5,5,6,6,9,9,10,10,12,12,13,13,14,14,16,16,17,17,18,18,19,19,20,20,21,21,22,22,23,23,25,25,27,27],"right_children":[2,4,6,8,-1,10,12,-1,-1,14,16,-1,18,20,22,-1,24,26,28,30,32,34,36,38,-1,40,-1,42,-1,-1,-1,-1,-1,-1,-1,-1,-1,-1,-1,-1,-1,-1,-1],"split_conditions":[-1.56282186508178711e+00,1.52846932411193848e-01,-6.65706872940063477e-01,-1.83298492431640625e+00,1.96050480008125305e-01,5.90991139411926270e-01,-1.45519685745239258e+00,-6.86142519116401672e-02,1.53833767399191856e-02,-1.65556144714355469e+00,-6.72950506210327148e-01,-1.68593272566795349e-01,1.56097674369812012e+00,-2.08643007278442383e+00,-5.60355782508850098e-01,-8.81976336240768433e-02,2.42549449205398560e-01,1.31833195686340332e+00,2.30148935317993164e+00,-2.35981035232543945e+00,6.50051459670066833e-02,-8.18560838699340820e-01,-1.15042686462402344e+00,-8.88267278671264648e-01,-4.38692905008792877e-02,1.30681061744689941e+00,-1.61249488592147827e-01,7.32489943504333496e-01,-2.53193974494934082e-02,7.32382899150252342e-03,-1.35475844144821167e-01,9.64285805821418762e-02,-4.61323745548725128e-03,-6.71810507774353027e-02,8.23318809270858765e-02,-1.07033429667353630e-02,-1.42253309488296509e-01,1.28857359290122986e-01,8.89192428439855576e-03,2.01063416898250580e-02,-7.71697834134101868e-02,1.42922177910804749e-01,2.17512436211109161e-02],"split_indices":[3,0,2,3,0,3,3,0,0,2,0,0,3,2,3,0,1,3,3,2,0,3,0,2,0,0,0,0,0,0,0,0,0,0,0,0,0,0,0,0,0,0,0],"sum_hessian":[1.20472007751464844e+02,5.80651760101318359e+00,1.14665489196777344e+02,2.78284001350402832e+00,3.02367758750915527e+00,2.84487323760986328e+01,8.62167587280273438e+01,1.05272042751312256e+00,1.73011958599090576e+00,2.08489532470703125e+01,7.59977865219116211e+00,1.32795178890228271e+00,8.48888092041015625e+01,5.25400924682617188e+00,1.55949449539184570e+01,1.88715338706970215e+00,5.71262502670288086e+00,7.85714874267578125e+01,6.31732320785522461e+00,2.30987715721130371e+00,2.94413208961486816e+00,4.19303512573242188e+00,1.14019098281860352e+01,3.76110577583312988e+00,1.95151948928833008e+00,7.53947372436523438e+01,3.17675089836120605e+00,5.05969572067260742e+00,1.25762760639190674e+00,1.28813481330871582e+00,1.02174222469329834e+00,1.69768714904785156e+00,1.24644505977630615e+00,2.82132196426391602e+00,1.37171304225921631e+00,1.47835886478424072e+00,9.92355060577392578e+00,2.64814925193786621e+00,1.11295640468597412e+00,6.85255203247070312e+01,6.86921262741088867e+00,3.72124361991882324e+00,1.33845186233520508e+00],"tree_param":{"num_feature":"4","num_nodes":"43","size_leaf_vector":"0"}}]},"name":"gbtree"},"learner_model_param":{"base_score":"0.500000","num_class":"0","num_feature":"4"},"objective":{"name":"binary:logistic","reg_loss_param":{"scale_pos_weight":"1"}}},"version":[1,0,0]}