{"learner":{"attributes":{},"gradient_booster":{"model":{"gbtree_model_param":{"num_trees":"12","size_leaf_vector":"0"},"tree_info":[0,0,1,1,2,2,0,0,1,1,2,2],"trees":[{"base_weights":[-5.73883429169654846e-02,4.30364571511745453e-02,-1.52898281812667847e-01,1.21277313155587763e-04,1.12899112701416016e+00,2.37638518214225769e-01,-1.71867012977600098e-01,1.33851781487464905e-01,-1.45156666636466980e-01,-3.40590447187423706e-01,7.56595551967620850e-01,-4.87056434154510498e-01,-1.32788702845573425e-01,2.07553818821907043e-01,-4.56809848546981812e-01,-4.72167968750000000e-01,1.42147894948720932e-02,-4.13965672254562378e-01,-9.96229350566864014e-02,3.96340101957321167e-01,-6.18810772895812988e-01,4.94942307472229004e-01,-1.44858375191688538e-01,1.36338248848915100e-01,7.07318723201751709e-01,1.09465561807155609e-01,-5.92427611351013184e-01,-5.70476114749908447e-01,-3.21546010673046112e-02,3.41693341732025146e-01,-1.13446556031703949e-01,-1.13364130258560181e-01,-3.87802004814147949e-01,-2.64653861522674561e-01,2.36301764845848083e-01,9.99150156974792480e-01,5.83968907594680786e-02,-8.49036648869514465e-02,-6.11582458019256592e-01,-2.76636958122253418e-01,2.82679826021194458e-01,1.52009591460227966e-01,7.14222609996795654e-01,-2.05231964588165283e-01,5.62430024147033691e-01,-1.36357456445693970e-01,5.13554692268371582e-01,-4.82033610343933105e-01,-8.12160372734069824e-02],"default_left":[true,true,true,true,false,true,true,true,true,true,false,true,true,true,true,true,true,false,false,false,false,false,true,true,true,false,false,true,true,true,true,true,true,false,false,false,false,false,false,false,false,false,false,false,false,false,false,false,false],"id":0,"leaf_child_counts":[0,1,0,0,0,1,0,0,0,2,0,2,1,0,2,0,0,0,0,0,0,0,0,2,2,0,0,2,2,2,2,2,2,0,0,0,0,0,0,0,0,0,0,0,0,0,0,0,0],"left_children":[1,3,5,7,-1,9,11,13,15,17,-1,19,21,23,25,27,29,-1,-1,-1,-1,-1,31,33,35,-1,-1,37,39,41,43,45,47,-1,-1,-1,-1,-1,-1,-1,-1,-1,-1,-1,-1,-1,-1,-1,-1],"loss_changes":[2.08391070365905762e+00,4.95635223388671875e+00,8.64798784255981445e-01,2.02655363082885742e+00,0.00000000000000000e+00,1.92964506149291992e+00,1.24898481369018555e+00,2.45923304557800293e+00,2.61237215995788574e+00,1.75484120845794678e-02,0.00000000000000000e+00,1.57093906402587891e+00,8.01040053367614746e-01,1.64665794372558594e+00,5.51568984985351562e-01,6.91571235656738281e-01,1.48465597629547119e+00,0.00000000000000000e+00,0.00000000000000000e+00,0.00000000000000000e+00,0.00000000000000000e+00,0.00000000000000000e+00,6.84607267379760742e-01,1.83050465583801270e+00,1.05323290824890137e+00,0.00000000000000000e+00,0.00000000000000000e+00,2.14637279510498047e-01,3.90458583831787109e-01,5.94530582427978516e-01,1.70573580265045166e+00,1.30548846721649170e+00,2.64614343643188477e-01,0.00000000000000000e+00,0.00000000000000000e+00,0.00000000000000000e+00,0.00000000000000000e+00,0.00000000000000000e+00,0.00000000000000000e+00,0.00000000000000000e+00,0.00000000000000000e+00,0.00000000000000000e+00,0.00000000000000000e+00,0.00000000000000000e+00,0.00000000000000000e+00,0.00000000000000000e+00,0.00000000000000000e+00,0.00000000000000000e+00,0.00000000000000000e+00],"parents":[2147483647,0,0,1,1,2,2,3,3,5,5,6,6,7,7,8,8,9,9,11,11,12,12,13,13,14,14,15,15,16,16,22,22,23,23,24,24,27,27,28,28,29,29,30,30,31,31,32,32],"right_children":[2,4,6,8,-1,10,12,14,16,18,-1,20,22,24,26,28,30,-1,-1,-1,-1,-1,32,34,36,-1,-1,38,40,42,44,46,48,-1,-1,-1,-1,-1,-1,-1,-1,-1,-1,-1,-1,-1,-1,-1,-1],"split_conditions":[-2.15725339949131012e-02,-4.36269976198673248e-02,-1.75378406047821045e+00,4.52867373824119568e-02,1.69348672032356262e-01,2.39625573158264160e-02,-1.04323565959930420e+00,1.34126186370849609e+00,4.48893785476684570e-01,5.04390418529510498e-01,1.13489337265491486e-01,-1.14504742622375488e+00,-1.01271033287048340e+00,1.15271735191345215e+00,-1.24935436248779297e+00,6.40030026435852051e-01,-1.12743353843688965e+00,-6.20948523283004761e-02,-1.49434404447674751e-02,5.94510175287723541e-02,-9.28216204047203064e-02,7.42413476109504700e-02,1.40552926063537598e+00,-9.04729783535003662e-01,5.59762194752693176e-02,1.64198353886604309e-02,-8.88641476631164551e-02,-1.53860092163085938e+00,-3.40079009532928467e-01,1.07881796360015869e+00,1.29004621505737305e+00,1.20798039436340332e+00,6.66337907314300537e-01,-3.96980792284011841e-02,3.54452654719352722e-02,1.49872526526451111e-01,8.75953398644924164e-03,-1.27355502918362617e-02,-9.17373746633529663e-02,-4.14955466985702515e-02,4.24019768834114075e-02,2.28014402091503143e-02,1.07133395969867706e-01,-3.07847950607538223e-02,8.43645036220550537e-02,-2.04536188393831253e-02,7.70332068204879761e-02,-7.23050460219383240e-02,-1.21824061498045921e-02],"split_indices":[3,3,2,2,0,1,2,0,2,3,0,1,2,1,3,0,3,0,0,0,0,0,2,0,0,0,0,0,1,2,1,2,0,0,0,0,0,0,0,0,0,0,0,0,0,0,0,0,0],"sum_hessian":[2.15578872680664062e+02,1.05353431701660156e+02,1.10225440979003906e+02,1.02310401916503906e+02,3.04303050041198730e+00,4.57177448272705078e+00,1.05653663635253906e+02,5.33133354187011719e+01,4.89970664978027344e+01,2.32496714591979980e+00,2.24680757522583008e+00,1.03898477554321289e+01,9.52638168334960938e+01,4.79756050109863281e+01,5.33772945404052734e+00,1.54116010665893555e+01,3.35854644775390625e+01,1.23191452026367188e+00,1.09305250644683838e+00,1.08784019947052002e+00,9.30200767517089844e+00,1.04240310192108154e+00,9.42214126586914062e+01,4.31058998107910156e+01,4.86970520019531250e+00,1.06860005855560303e+00,4.26912927627563477e+00,1.23547868728637695e+01,3.05681419372558594e+00,8.95006942749023438e+00,2.46353950500488281e+01,8.47069702148437500e+01,9.51444625854492188e+00,8.27284240722656250e+00,3.48330574035644531e+01,2.98678684234619141e+00,1.88291847705841064e+00,1.20352256298065186e+00,1.11512651443481445e+01,1.78894650936126709e+00,1.26786768436431885e+00,6.86341571807861328e+00,2.08665370941162109e+00,2.23029556274414062e+01,2.33243966102600098e+00,8.24649200439453125e+01,2.24204683303833008e+00,6.83989000320434570e+00,2.67455577850341797e+00],"tree_param":{"num_feature":"4","num_nodes":"49","size_leaf_vector":"0"}},{"base_weights":[-5.73883429169654846e-02,4.30364571511745453e-02,-1.52898281812667847e-01,1.21277313155587763e-04,1.12899112701416016e+00,2.37638518214225769e-01,-1.71867012977600098e-01,1.33851781487464905e-01,-1.45156666636466980e-01,-3.40590447187423706e-01,7.56595551967620850e-01,-4.87056434154510498e-01,-1.32788702845573425e-01,2.07553818821907043e-01,-4.56809848546981812e-01,-4.72167968750000000e-01,1.42147894948720932e-02,-4.13965672254562378e-01,-9.96229350566864014e-02,3.96340101957321167e-01,-6.18810772895812988e-01,4.94942307472229004e-01,-1.44858375191688538e-01,1.36338248848915100e-01,7.07318723201751709e-01,1.09465561807155609e-01,-5.92427611351013184e-01,-5.70476114749908447e-01,-3.21546010673046112e-02,3.41693341732025146e-01,-1.13446556031703949e-01,-1.13364130258560181e-01,-3.87802004814147949e-01,-2.64653861522674561e-01,2.36301764845848083e-01,9.99150156974792480e-01,5.83968907594680786e-02,-8.49036648869514465e-02,-6.11582458019256592e-01,-2.76636958122253418e-01,2.82679826021194458e-01,1.52009591460227966e-01,7.14222609996795654e-01,-2.05231964588165283e-01,5.62430024147033691e-01,-1.36357456445693970e-01,5.13554692268371582e-01,-4.82033610343933105e-01,-8.12160372734069824e-02],"default_left":[true,true,true,true,false,true,true,true,true,true,false,true,true,true,true,true,true,false,false,false,false,false,true,true,true,false,false,true,true,true,true,true,true,false,false,false,false,false,false,false,false,false,false,false,false,false,false,false,false],"id":1,"leaf_child_counts":[0,1,0,0,0,1,0,0,0,2,0,2,1,0,2,0,0,0,0,0,0,0,0,2,2,0,0,2,2,2,2,2,2,0,0,0,0,0,0,0,0,0,0,0,0,0,0,0,0],"left_children":[1,3,5,7,-1,9,11,13,15,17,-1,19,21,23,25,27,29,-1,-1,-1,-1,-1,31,33,35,-1,-1,37,39,41,43,45,47,-1,-1,-1,-1,-1,-1,-1,-1,-1,-1,-1,-1,-1,-1,-1,-1],"loss_changes":[2.08391070365905762e+00,4.95635223388671875e+00,8.64798784255981445e-01,2.02655363082885742e+00,0.00000000000000000e+00,1.92964506149291992e+00,1.24898481369018555e+00,2.45923304557800293e+00,2.61237215995788574e+00,1.75484120845794678e-02,0.00000000000000000e+00,1.57093906402587891e+00,8.01040053367614746e-01,1.64665794372558594e+00,5.51568984985351562e-01,6.91571235656738281e-01,1.48465597629547119e+00,0.00000000000000000e+00,0.00000000000000000e+00,0.00000000000000000e+00,0.00000000000000000e+00,0.00000000000000000e+00,6.84607267379760742e-01,1.83050465583801270e+00,1.05323290824890137e+00,0.00000000000000000e+00,0.00000000000000000e+00,2.14637279510498047e-01,3.90458583831787109e-01,5.94530582427978516e-01,1.70573580265045166e+00,1.30548846721649170e+00,2.64614343643188477e-01,0.00000000000000000e+00,0.00000000000000000e+00,0.00000000000000000e+00,0.00000000000000000e+00,0.00000000000000000e+00,0.00000000000000000e+00,0.00000000000000000e+00,0.00000000000000000e+00,0.00000000000000000e+00,0.00000000000000000e+00,0.00000000000000000e+00,0.00000000000000000e+00,0.00000000000000000e+00,0.00000000000000000e+00,0.00000000000000000e+00,0.00000000000000000e+00],"parents":[2147483647,0,0,1,1,2,2,3,3,5,5,6,6,7,7,8,8,9,9,11,11,12,12,13,13,14,14,15,15,16,16,22,22,23,23,24,24,27,27,28,28,29,29,30,30,31,31,32,32],"right_children":[2,4,6,8,-1,10,12,14,16,18,-1,20,22,24,26,28,30,-1,-1,-1,-1,-1,32,34,36,-1,-1,38,40,42,44,46,48,-1,-1,-1,-1,-1,-1,-1,-1,-1,-1,-1,-1,-1,-1,-1,-1],"split_conditions":[-2.15725339949131012e-02,-4.36269976198673248e-02,-1.75378406047821045e+00,4.52867373824119568e-02,1.69348672032356262e-01,2.39625573158264160e-02,-1.04323565959930420e+00,1.34126186370849609e+00,4.48893785476684570e-01,5.04390418529510498e-01,1.13489337265491486e-01,-1.14504742622375488e+00,-1.01271033287048340e+00,1.15271735191345215e+00,-1.24935436248779297e+00,6.40030026435852051e-01,-1.12743353843688965e+00,-6.20948523283004761e-02,-1.49434404447674751e-02,5.94510175287723541e-02,-9.28216204047203064e-02,7.42413476109504700e-02,1.40552926063537598e+00,-9.04729783535003662e-01,5.59762194752693176e-02,1.64198353886604309e-02,-8.88641476631164551e-02,-1.53860092163085938e+00,-3.40079009532928467e-01,1.07881796360015869e+00,1.29004621505737305e+00,1.20798039436340332e+00,6.66337907314300537e-01,-3.96980792284011841e-02,3.54452654719352722e-02,1.49872526526451111e-01,8.75953398644924164e-03,-1.27355502918362617e-02,-9.17373746633529663e-02,-4.14955466985702515e-02,4.24019768834114075e-02,2.28014402091503143e-02,1.07133395969867706e-01,-3.07847950607538223e-02,8.43645036220550537e-02,-2.04536188393831253e-02,7.70332068204879761e-02,-7.23050460219383240e-02,-1.21824061498045921e-02],"split_indices":[3,3,2,2,0,1,2,0,2,3,0,1,2,1,3,0,3,0,0,0,0,0,2,0,0,0,0,0,1,2,1,2,0,0,0,0,0,0,0,0,0,0,0,0,0,0,0,0,0],"sum_hessian":[2.15578872680664062e+02,1.05353431701660156e+02,1.10225440979003906e+02,1.02310401916503906e+02,3.04303050041198730e+00,4.57177448272705078e+00,1.05653663635253906e+02,5.33133354187011719e+01,4.89970664978027344e+01,2.32496714591979980e+00,2.24680757522583008e+00,1.03898477554321289e+01,9.52638168334960938e+01,4.79756050109863281e+01,5.33772945404052734e+00,1.54116010665893555e+01,3.35854644775390625e+01,1.23191452026367188e+00,1.09305250644683838e+00,1.08784019947052002e+00,9.30200767517089844e+00,1.04240310192108154e+00,9.42214126586914062e+01,4.31058998107910156e+01,4.86970520019531250e+00,1.06860005855560303e+00,4.26912927627563477e+00,1.23547868728637695e+01,3.05681419372558594e+00,8.95006942749023438e+00,2.46353950500488281e+01,8.47069702148437500e+01,9.51444625854492188e+00,8.27284240722656250e+00,3.48330574035644531e+01,2.98678684234619141e+00,1.88291847705841064e+00,1.20352256298065186e+00,1.11512651443481445e+01,1.78894650936126709e+00,1.26786768436431885e+00,6.86341571807861328e+00,2.08665370941162109e+00,2.23029556274414062e+01,2.33243966102600098e+00,8.24649200439453125e+01,2.24204683303833008e+00,6.83989000320434570e+00,2.67455577850341797e+00],"tree_param":{"num_feature":"4","num_nodes":"49","size_leaf_vector":"0"}},{"base_weights":[2.07467731088399887e-02,4.72728684544563293e-02,-3.95033836364746094e-01,1.17953523993492126e-01,-1.01451136171817780e-01,-5.01278102397918701e-01,1.96594029664993286e-01,5.05085945129394531e-01,7.64143243432044983e-02,-1.73427939414978027e-01,3.99752110242843628e-01,-5.61167061328887939e-01,6.69151451438665390e-03,1.01160965859889984e-01,9.51475918292999268e-01,-2.22045674920082092e-01,1.30388557910919189e-01,1.41461170278489590e-03,-4.26547825336456299e-01,6.99862480163574219e-01,-2.66691774129867554e-01,2.79171139001846313e-01,-3.16532939672470093e-01,4.51025843620300293e-01,-3.34426850080490112e-01,8.86081755161285400e-02,4.38180208206176758e-01,4.47126924991607666e-01,-7.17821419239044189e-02,-4.95613485574722290e-01,5.00039637088775635e-01,8.16654741764068604e-01,1.11044399440288544e-01,-4.11579251289367676e-01,1.55165337491780519e-03,-2.91320800781250000e-01,5.02087533473968506e-01,-4.98414814472198486e-01,2.81490981578826904e-02,1.38513207435607910e-01,-1.95786759257316589e-01,8.34150373935699463e-01,-1.84954330325126648e-02,-2.57481983862817287e-03,8.29772651195526123e-01,-5.39414405822753906e-01,-1.19025623425841331e-02,-1.97795182466506958e-01,-6.47911787033081055e-01],"default_left":[true,true,true,true,true,true,false,true,true,true,true,false,false,true,false,true,true,true,true,true,true,true,false,false,true,true,true,true,true,true,false,false,false,false,false,false,false,false,false,false,false,false,false,false,false,false,false,false,false],"id":2,"leaf_child_counts":[0,0,1,0,0,2,0,1,0,0,0,0,0,1,0,1,0,0,1,2,2,2,0,0,2,2,2,2,2,2,0,0,0,0,0,0,0,0,0,0,0,0,0,0,0,0,0,0,0],"left_children":[1,3,5,7,9,11,-1,13,15,17,19,-1,-1,21,-1,23,25,27,29,31,33,35,-1,-1,37,39,41,43,45,47,-1,-1,-1,-1,-1,-1,-1,-1,-1,-1,-1,-1,-1,-1,-1,-1,-1,-1,-1],"loss_changes":[2.40733075141906738e+00,2.16147637367248535e+00,9.21698570251464844e-01,2.19784307479858398e+00,2.46511888504028320e+00,3.50064754486083984e-01,0.00000000000000000e+00,2.30150318145751953e+00,2.07117033004760742e+00,2.60150146484375000e+00,1.91513502597808838e+00,0.00000000000000000e+00,0.00000000000000000e+00,6.90638124942779541e-01,0.00000000000000000e+00,1.64738297462463379e+00,1.34987223148345947e+00,1.19862318038940430e+00,1.78456544876098633e+00,3.38073015213012695e-01,1.33068561553955078e-01,9.36126947402954102e-01,0.00000000000000000e+00,0.00000000000000000e+00,1.05623579025268555e+00,1.39438486099243164e+00,2.30350565910339355e+00,8.93841981887817383e-01,8.77700924873352051e-01,9.08246994018554688e-01,0.00000000000000000e+00,0.00000000000000000e+00,0.00000000000000000e+00,0.00000000000000000e+00,0.00000000000000000e+00,0.00000000000000000e+00,0.00000000000000000e+00,0.00000000000000000e+00,0.00000000000000000e+00,0.00000000000000000e+00,0.00000000000000000e+00,0.00000000000000000e+00,0.00000000000000000e+00,0.00000000000000000e+00,0.00000000000000000e+00,0.00000000000000000e+00,0.00000000000000000e+00,0.00000000000000000e+00,0.00000000000000000e+00],"parents":[2147483647,0,0,1,1,2,2,3,3,4,4,5,5,7,7,8,8,9,9,10,10,13,13,15,15,16,16,17,17,18,18,19,19,20,20,21,21,24,24,25,25,26,26,27,27,28,28,29,29],"right_children":[2,4,6,8,10,12,-1,14,16,18,20,-1,-1,22,-1,24,26,28,30,32,34,36,-1,-1,38,40,42,44,46,48,-1,-1,-1,-1,-1,-1,-1,-1,-1,-1,-1,-1,-1,-1,-1,-1,-1,-1,-1],"split_conditions":[1.68628263473510742e+00,4.42539751529693604e-01,2.45922756195068359e+00,-1.31284523010253906e+00,1.20615863800048828e+00,1.49844384193420410e+00,2.94891055673360825e-02,-1.56858515739440918e+00,-1.18536353111267090e+00,9.25339907407760620e-02,1.97501182556152344e+00,-8.41750651597976685e-02,1.00372720044106245e-03,-1.63486492633819580e+00,1.42721399664878845e-01,-2.37427973747253418e+00,9.30171489715576172e-01,-9.94055032730102539e-01,1.42086708545684814e+00,6.92873656749725342e-01,-2.99081981182098389e-01,-1.97709476947784424e+00,-4.74799424409866333e-02,6.76538795232772827e-02,3.18869590759277344e-01,1.16517734527587891e+00,-4.03442949056625366e-01,-5.97231268882751465e-01,5.15942215919494629e-01,-3.20526599884033203e-01,7.50059485435485840e-02,1.22498214244842529e-01,1.66566614061594009e-02,-6.17368891835212708e-02,2.32748017879202962e-04,-4.36981208622455597e-02,7.53131359815597534e-02,-7.47622251510620117e-02,4.22236509621143341e-03,2.07769814878702164e-02,-2.93680150061845779e-02,1.25122562050819397e-01,-2.77431495487689972e-03,-3.86222993256524205e-04,1.24465905129909515e-01,-8.09121653437614441e-02,-1.78538437467068434e-03,-2.96692792326211929e-02,-9.71867740154266357e-02],"split_indices":[3,2,3,0,0,0,0,0,1,0,0,0,0,0,0,1,3,1,3,1,1,0,0,0,0,0,2,0,2,1,0,0,0,0,0,0,0,0,0,0,0,0,0,0,0,0,0,0,0],"sum_hessian":[2.15578872680664062e+02,2.03483291625976562e+02,1.20955848693847656e+01,1.38071914672851562e+02,6.54113769531250000e+01,1.03836135864257812e+01,1.71197152137756348e+00,1.22981061935424805e+01,1.25773803710937500e+02,5.77692298889160156e+01,7.64214658737182617e+00,9.19482994079589844e+00,1.18878400325775146e+00,7.10007715225219727e+00,5.19802904129028320e+00,1.87849884033203125e+01,1.06988815307617188e+02,3.47559623718261719e+01,2.30132675170898438e+01,5.23472261428833008e+00,2.40742397308349609e+00,5.21094608306884766e+00,1.88913118839263916e+00,2.25657677650451660e+00,1.65284118652343750e+01,9.53356094360351562e+01,1.16532030105590820e+01,4.18203067779541016e+00,3.05739326477050781e+01,2.18497581481933594e+01,1.16351056098937988e+00,4.04538106918334961e+00,1.18934166431427002e+00,1.21617591381072998e+00,1.19124805927276611e+00,1.37785410881042480e+00,3.83309197425842285e+00,1.11229906082153320e+01,5.40542078018188477e+00,8.15400848388671875e+01,1.37955274581909180e+01,5.79872608184814453e+00,5.85447692871093750e+00,2.37918329238891602e+00,1.80284726619720459e+00,2.56149601936340332e+00,2.80124359130859375e+01,8.17071437835693359e+00,1.36790437698364258e+01],"tree_param":{"num_feature":"4","num_nodes":"49","size_leaf_vector":"0"}},{"base_weights":[2.07467731088399887e-02,4.72728684544563293e-02,-3.95033836364746094e-01,1.17953523993492126e-01,-1.01451136171817780e-01,-5.01278102397918701e-01,1.96594029664993286e-01,5.05085945129394531e-01,7.64143243432044983e-02,-1.73427939414978027e-01,3.99752110242843628e-01,-5.61167061328887939e-01,6.69151451438665390e-03,1.01160965859889984e-01,9.51475918292999268e-01,-2.22045674920082092e-01,1.30388557910919189e-01,1.41461170278489590e-03,-4.26547825336456299e-01,6.99862480163574219e-01,-2.66691774129867554e-01,2.79171139001846313e-01,-3.16532939672470093e-01,4.51025843620300293e-01,-3.34426850080490112e-01,8.86081755161285400e-02,4.38180208206176758e-01,4.47126924991607666e-01,-7.17821419239044189e-02,-4.95613485574722290e-01,5.00039637088775635e-01,8.16654741764068604e-01,1.11044399440288544e-01,-4.11579251289367676e-01,1.55165337491780519e-03,-2.91320800781250000e-01,5.02087533473968506e-01,-4.98414814472198486e-01,2.81490981578826904e-02,1.38513207435607910e-01,-1.95786759257316589e-01,8.34150373935699463e-01,-1.84954330325126648e-02,-2.57481983862817287e-03,8.29772651195526123e-01,-5.39414405822753906e-01,-1.19025623425841331e-02,-1.97795182466506958e-01,-6.47911787033081055e-01],"default_left":[true,true,true,true,true,true,false,true,true,true,true,false,false,true,false,true,true,true,true,true,true,true,false,false,true,true,true,true,true,true,false,false,false,false,false,false,false,false,false,false,false,false,false,false,false,false,false,false,false],"id":3,"leaf_child_counts":[0,0,1,0,0,2,0,1,0,0,0,0,0,1,0,1,0,0,1,2,2,2,0,0,2,2,2,2,2,2,0,0,0,0,0,0,0,0,0,0,0,0,0,0,0,0,0,0,0],"left_children":[1,3,5,7,9,11,-1,13,15,17,19,-1,-1,21,-1,23,25,27,29,31,33,35,-1,-1,37,39,41,43,45,47,-1,-1,-1,-1,-1,-1,-1,-1,-1,-1,-1,-1,-1,-1,-1,-1,-1,-1,-1],"loss_changes":[2.40733075141906738e+00,2.16147637367248535e+00,9.21698570251464844e-01,2.19784307479858398e+00,2.46511888504028320e+00,3.50064754486083984e-01,0.00000000000000000e+00,2.30150318145751953e+00,2.07117033004760742e+00,2.60150146484375000e+00,1.91513502597808838e+00,0.00000000000000000e+00,0.00000000000000000e+00,6.90638124942779541e-01,0.00000000000000000e+00,1.64738297462463379e+00,1.34987223148345947e+00,1.19862318038940430e+00,1.78456544876098633e+00,3.38073015213012695e-01,1.33068561553955078e-01,9.36126947402954102e-01,0.00000000000000000e+00,0.00000000000000000e+00,1.05623579025268555e+00,1.39438486099243164e+00,2.30350565910339355e+00,8.93841981887817383e-01,8.77700924873352051e-01,9.08246994018554688e-01,0.00000000000000000e+00,0.00000000000000000e+00,0.00000000000000000e+00,0.00000000000000000e+00,0.00000000000000000e+00,0.00000000000000000e+00,0.00000000000000000e+00,0.00000000000000000e+00,0.00000000000000000e+00,0.00000000000000000e+00,0.00000000000000000e+00,0.00000000000000000e+00,0.00000000000000000e+00,0.00000000000000000e+00,0.00000000000000000e+00,0.00000000000000000e+00,0.00000000000000000e+00,0.00000000000000000e+00,0.00000000000000000e+00],"parents":[2147483647,0,0,1,1,2,2,3,3,4,4,5,5,7,7,8,8,9,9,10,10,13,13,15,15,16,16,17,17,18,18,19,19,20,20,21,21,24,24,25,25,26,26,27,27,28,28,29,29],"right_children":[2,4,6,8,10,12,-1,14,16,18,20,-1,-1,22,-1,24,26,28,30,32,34,36,-1,-1,38,40,42,44,46,48,-1,-1,-1,-1,-1,-1,-1,-1,-1,-1,-1,-1,-1,-1,-1,-1,-1,-1,-1],"split_conditions":[1.68628263473510742e+00,4.42539751529693604e-01,2.45922756195068359e+00,-1.31284523010253906e+00,1.20615863800048828e+00,1.49844384193420410e+00,2.94891055673360825e-02,-1.56858515739440918e+00,-1.18536353111267090e+00,9.25339907407760620e-02,1.97501182556152344e+00,-8.41750651597976685e-02,1.00372720044106245e-03,-1.63486492633819580e+00,1.42721399664878845e-01,-2.37427973747253418e+00,9.30171489715576172e-01,-9.94055032730102539e-01,1.42086708545684814e+00,6.92873656749725342e-01,-2.99081981182098389e-01,-1.97709476947784424e+00,-4.74799424409866333e-02,6.76538795232772827e-02,3.18869590759277344e-01,1.16517734527587891e+00,-4.03442949056625366e-01,-5.97231268882751465e-01,5.15942215919494629e-01,-3.20526599884033203e-01,7.50059485435485840e-02,1.22498214244842529e-01,1.66566614061594009e-02,-6.17368891835212708e-02,2.32748017879202962e-04,-4.36981208622455597e-02,7.53131359815597534e-02,-7.47622251510620117e-02,4.22236509621143341e-03,2.07769814878702164e-02,-2.93680150061845779e-02,1.25122562050819397e-01,-2.77431495487689972e-03,-3.86222993256524205e-04,1.24465905129909515e-01,-8.09121653437614441e-02,-1.78538437467068434e-03,-2.96692792326211929e-02,-9.71867740154266357e-02],"split_indices":[3,2,3,0,0,0,0,0,1,0,0,0,0,0,0,1,3,1,3,1,1,0,0,0,0,0,2,0,2,1,0,0,0,0,0,0,0,0,0,0,0,0,0,0,0,0,0,0,0],"sum_hessian":[2.15578872680664062e+02,2.03483291625976562e+02,1.20955848693847656e+01,1.38071914672851562e+02,6.54113769531250000e+01,1.03836135864257812e+01,1.71197152137756348e+00,1.22981061935424805e+01,1.25773803710937500e+02,5.77692298889160156e+01,7.64214658737182617e+00,9.19482994079589844e+00,1.18878400325775146e+00,7.10007715225219727e+00,5.19802904129028320e+00,1.87849884033203125e+01,1.06988815307617188e+02,3.47559623718261719e+01,2.30132675170898438e+01,5.23472261428833008e+00,2.40742397308349609e+00,5.21094608306884766e+00,1.88913118839263916e+00,2.25657677650451660e+00,1.65284118652343750e+01,9.53356094360351562e+01,1.16532030105590820e+01,4.18203067779541016e+00,3.05739326477050781e+01,2.18497581481933594e+01,1.16351056098937988e+00,4.04538106918334961e+00,1.18934166431427002e+00,1.21617591381072998e+00,1.19124805927276611e+00,1.37785410881042480e+00,3.83309197425842285e+00,1.11229906082153320e+01,5.40542078018188477e+00,8.15400848388671875e+01,1.37955274581909180e+01,5.79872608184814453e+00,5.85447692871093750e+00,2.37918329238891602e+00,1.80284726619720459e+00,2.56149601936340332e+00,2.80124359130859375e+01,8.17071437835693359e+00,1.36790437698364258e+01],"tree_param":{"num_feature":"4","num_nodes":"49","size_leaf_vector":"0"}},{"base_weights":[3.66414301097393036e-02,-2.70785130560398102e-02,2.26807028055191040e-01,-2.10408374667167664e-01,5.67913353443145752e-02,9.13114920258522034e-02,5.00460803508758545e-01,5.60468554496765137e-01,-3.02573353052139282e-01,1.18633052334189415e-02,3.75846147537231445e-01,3.47178816795349121e-01,-2.26194947957992554e-01,6.64501249790191650e-01,1.34469434618949890e-01,-5.28029017150402069e-02,7.26046442985534668e-01,-3.94984900951385498e-01,-1.55994936823844910e-01,-3.42954933643341064e-01,4.66152206063270569e-02,4.86794620752334595e-01,-4.15928333997726440e-01,6.49181663990020752e-01,5.94900622963905334e-02,-5.17322063446044922e-01,5.48483915627002716e-02,8.92324090003967285e-01,2.22063630819320679e-01,-3.60763430595397949e-01,4.69146490097045898e-01,9.58987116813659668e-01,2.52064347267150879e-01,-4.42846566438674927e-01,2.88869857788085938e-01,-5.84269523620605469e-01,-2.62092314660549164e-02,-4.99513179063796997e-01,-6.80826008319854736e-02,9.05923545360565186e-01,3.92233207821846008e-03,6.41543209552764893e-01,-1.99842546135187149e-02,8.52928042411804199e-01,-2.94502437114715576e-01,-3.82074296474456787e-01,2.04292461276054382e-01,-5.85573673248291016e-01,-9.29348990321159363e-02,2.59441524744033813e-01,-4.10532593727111816e-01,9.83130455017089844e-01,1.86439186334609985e-01,-4.23226773738861084e-01,5.26848196983337402e-01,7.16603696346282959e-01,-9.53023582696914673e-02,-3.06560277938842773e-01,-6.28035783767700195e-01,5.79671561717987061e-01,-1.56021565198898315e-01,3.40494811534881592e-01,-3.03128391504287720e-01,-9.32069197297096252e-02,1.66021868586540222e-01,7.50976026058197021e-01,-9.90252196788787842e-02,-3.83956998586654663e-01,2.46245563030242920e-01,5.56913316249847412e-01,-2.98788212239742279e-02,-2.98915863037109375e-01,5.43874502182006836e-01,7.79561996459960938e-01,-4.16400171816349030e-02],"default_left":[true,true,true,true,true,true,true,true,true,true,true,true,true,true,true,false,true,true,true,true,true,true,false,true,true,true,true,true,true,false,true,false,false,true,false,false,true,false,true,false,true,true,true,false,false,false,true,false,false,true,false,false,false,false,true,false,false,false,false,false,false,false,false,false,false,false,false,false,false,false,false,false,false,false,false],"id":4,"leaf_child_counts":[0,0,0,0,0,0,0,1,0,0,1,0,0,0,1,0,2,1,1,1,1,0,0,2,1,2,1,2,1,0,2,0,0,2,0,0,2,0,2,0,2,2,2,0,0,0,2,0,0,2,0,0,0,0,2,0,0,0,0,0,0,0,0,0,0,0,0,0,0,0,0,0,0,0,0],"left_children":[1,3,5,7,9,11,13,15,17,19,21,23,25,27,29,-1,31,33,35,37,39,41,-1,43,45,47,49,51,53,-1,55,-1,-1,57,-1,-1,59,-1,61,-1,63,65,67,-1,-1,-1,69,-1,-1,71,-1,-1,-1,-1,73,-1,-1,-1,-1,-1,-1,-1,-1,-1,-1,-1,-1,-1,-1,-1,-1,-1,-1,-1,-1],"loss_changes":[2.63050150871276855e+00,2.51998805999755859e+00,1.97374367713928223e+00,3.82229280471801758e+00,1.61109018325805664e+00,3.13721942901611328e+00,9.80099678039550781e-01,6.31448388099670410e-01,5.69213867187500000e-01,1.24688541889190674e+00,1.42167997360229492e+00,1.80706477165222168e+00,1.45259404182434082e+00,1.01609516143798828e+00,1.29078805446624756e+00,0.00000000000000000e+00,2.73552894592285156e-01,1.04144573211669922e+00,1.07750010490417480e+00,3.54351878166198730e-01,3.36425423622131348e+00,1.00361108779907227e+00,0.00000000000000000e+00,2.22447490692138672e+00,8.44076752662658691e-01,1.96009397506713867e-01,1.03588771820068359e+00,3.05171966552734375e-01,1.29011535644531250e+00,0.00000000000000000e+00,6.93015038967132568e-01,0.00000000000000000e+00,0.00000000000000000e+00,4.75780963897705078e-01,0.00000000000000000e+00,0.00000000000000000e+00,1.35948657989501953e+00,0.00000000000000000e+00,5.28901994228363037e-01,0.00000000000000000e+00,1.40823197364807129e+00,8.61182212829589844e-01,4.74899709224700928e-01,0.00000000000000000e+00,0.00000000000000000e+00,0.00000000000000000e+00,8.15412759780883789e-01,0.00000000000000000e+00,0.00000000000000000e+00,1.33668994903564453e+00,0.00000000000000000e+00,0.00000000000000000e+00,0.00000000000000000e+00,0.00000000000000000e+00,6.25903606414794922e-01,0.00000000000000000e+00,0.00000000000000000e+00,0.00000000000000000e+00,0.00000000000000000e+00,0.00000000000000000e+00,0.00000000000000000e+00,0.00000000000000000e+00,0.00000000000000000e+00,0.00000000000000000e+00,0.00000000000000000e+00,0.00000000000000000e+00,0.00000000000000000e+00,0.00000000000000000e+00,0.00000000000000000e+00,0.00000000000000000e+00,0.00000000000000000e+00,0.00000000000000000e+00,0.00000000000000000e+00,0.00000000000000000e+00,0.00000000000000000e+00],"parents":[2147483647,0,0,1,1,2,2,3,3,4,4,5,5,6,6,7,7,8,8,9,9,10,10,11,11,12,12,13,13,14,14,16,16,17,17,18,18,19,19,20,20,21,21,23,23,24,24,25,25,26,26,27,27,28,28,30,30,33,33,36,36,38,38,40,40,41,41,42,42,46,46,49,49,54,54],"right_children":[2,4,6,8,10,12,14,16,18,20,22,24,26,28,30,-1,32,34,36,38,40,42,-1,44,46,48,50,52,54,-1,56,-1,-1,58,-1,-1,60,-1,62,-1,64,66,68,-1,-1,-1,70,-1,-1,72,-1,-1,-1,-1,74,-1,-1,-1,-1,-1,-1,-1,-1,-1,-1,-1,-1,-1,-1,-1,-1,-1,-1,-1,-1],"split_conditions":[6.71706676483154297e-01,-4.83467698097229004e-01,4.59737390279769897e-01,-1.67621302604675293e+00,1.48332011699676514e+00,-4.38289940357208252e-01,4.86981213092803955e-01,-2.28827047348022461e+00,-4.57651168107986450e-02,-1.31831824779510498e+00,1.47484099864959717e+00,1.06066656112670898e+00,-6.76861554384231567e-02,1.32678008079528809e+00,6.56330287456512451e-01,-7.92043562978506088e-03,-5.78199148178100586e-01,1.34397888183593750e+00,-1.11420941352844238e+00,4.35128509998321533e-01,-1.21318340301513672e+00,7.88535118103027344e-01,-6.23892508447170258e-02,1.22543239593505859e+00,-1.17123007774353027e+00,1.64371490478515625e+00,1.15336930751800537e+00,1.87845981121063232e+00,1.55329036712646484e+00,-5.41145168244838715e-02,1.43043470382690430e+00,1.43848076462745667e-01,3.78096550703048706e-02,2.40187823772430420e-01,4.33304794132709503e-02,-8.76404345035552979e-02,-8.07271718978881836e-01,-7.49269798398017883e-02,5.90442538261413574e-01,1.35888531804084778e-01,5.09139060974121094e-01,2.25551891326904297e+00,-1.16005659103393555e-01,1.27939209342002869e-01,-4.41753678023815155e-02,-5.73111474514007568e-02,-2.78781116008758545e-01,-8.78360569477081299e-02,-1.39402355998754501e-02,-3.30484390258789062e-01,-6.15798905491828918e-02,1.47469580173492432e-01,2.79658790677785873e-02,-6.34840205311775208e-02,2.28224492073059082e+00,1.07490561902523041e-01,-1.42953544855117798e-02,-4.59840446710586548e-02,-9.42053720355033875e-02,8.69507342576980591e-02,-2.34032347798347473e-02,5.10742254555225372e-02,-4.54692617058753967e-02,-1.39810387045145035e-02,2.49032806605100632e-02,1.12646408379077911e-01,-1.48537838831543922e-02,-5.75935505330562592e-02,3.69368344545364380e-02,8.35369974374771118e-02,-4.48182318359613419e-03,-4.48373816907405853e-02,8.15811753273010254e-02,1.16934306919574738e-01,-6.24600285664200783e-03],"split_indices":[2,3,3,2,3,3,0,2,2,0,1,2,0,3,3,0,0,0,0,1,0,0,0,0,3,2,0,2,3,0,3,0,0,1,0,0,0,0,1,0,0,3,1,0,0,0,0,0,0,1,0,0,0,0,3,0,0,0,0,0,0,0,0,0,0,0,0,0,0,0,0,0,0,0,0],"sum_hessian":[2.15578872680664062e+02,1.62115463256835938e+02,5.34634094238281250e+01,5.04119567871093750e+01,1.11703506469726562e+02,3.66502609252929688e+01,1.68131465911865234e+01,4.84091615676879883e+00,4.55710411071777344e+01,9.88246002197265625e+01,1.28789033889770508e+01,2.02433776855468750e+01,1.64068851470947266e+01,1.10464267730712891e+01,5.76672029495239258e+00,1.17394137382507324e+00,3.66697502136230469e+00,2.69104385375976562e+01,1.86606025695800781e+01,8.02459144592285156e+00,9.08000106811523438e+01,1.16338768005371094e+01,1.24502706527709961e+00,9.26297664642333984e+00,1.09804019927978516e+01,7.64591503143310547e+00,8.76096916198730469e+00,6.62051296234130859e+00,4.42591333389282227e+00,2.29410767555236816e+00,3.47261285781860352e+00,1.77257740497589111e+00,1.89439749717712402e+00,2.54795970916748047e+01,1.43084096908569336e+00,3.52541804313659668e+00,1.51351852416992188e+01,4.59192562103271484e+00,3.43266510963439941e+00,3.34066534042358398e+00,8.74593429565429688e+01,8.70869159698486328e+00,2.92518496513366699e+00,7.69726753234863281e+00,1.56570887565612793e+00,2.30694627761840820e+00,8.67345523834228516e+00,6.25943803787231445e+00,1.38647675514221191e+00,6.39297533035278320e+00,2.36799407005310059e+00,5.51791477203369141e+00,1.10259819030761719e+00,1.29516935348510742e+00,3.13074421882629395e+00,2.22680640220642090e+00,1.24580669403076172e+00,1.62074432373046875e+01,9.27215385437011719e+00,2.05911183357238770e+00,1.30760736465454102e+01,1.08974397182464600e+00,2.34292125701904297e+00,5.49553604125976562e+01,3.25039825439453125e+01,7.57525253295898438e+00,1.13343906402587891e+00,1.04893946647644043e+00,1.87624561786651611e+00,2.91130709648132324e+00,5.76214838027954102e+00,2.14037823677062988e+00,4.25259685516357422e+00,1.91026985645294189e+00,1.22047424316406250e+00],"tree_param":{"num_feature":"4","num_nodes":"75","size_leaf_vector":"0"}},{"base_weights":[3.66414301097393036e-02,-2.70785130560398102e-02,2.26807028055191040e-01,-2.10408374667167664e-01,5.67913353443145752e-02,9.13114920258522034e-02,5.00460803508758545e-01,5.60468554496765137e-01,-3.02573353052139282e-01,1.18633052334189415e-02,3.75846147537231445e-01,3.47178816795349121e-01,-2.26194947957992554e-01,6.64501249790191650e-01,1.34469434618949890e-01,-5.28029017150402069e-02,7.26046442985534668e-01,-3.94984900951385498e-01,-1.55994936823844910e-01,-3.42954933643341064e-01,4.66152206063270569e-02,4.86794620752334595e-01,-4.15928333997726440e-01,6.49181663990020752e-01,5.94900622963905334e-02,-5.17322063446044922e-01,5.48483915627002716e-02,8.92324090003967285e-01,2.22063630819320679e-01,-3.60763430595397949e-01,4.69146490097045898e-01,9.58987116813659668e-01,2.52064347267150879e-01,-4.42846566438674927e-01,2.88869857788085938e-01,-5.84269523620605469e-01,-2.62092314660549164e-02,-4.99513179063796997e-01,-6.80826008319854736e-02,9.05923545360565186e-01,3.92233207821846008e-03,6.41543209552764893e-01,-1.99842546135187149e-02,8.52928042411804199e-01,-2.94502437114715576e-01,-3.82074296474456787e-01,2.04292461276054382e-01,-5.85573673248291016e-01,-9.29348990321159363e-02,2.59441524744033813e-01,-4.10532593727111816e-01,9.83130455017089844e-01,1.86439186334609985e-01,-4.23226773738861084e-01,5.26848196983337402e-01,7.16603696346282959e-01,-9.53023582696914673e-02,-3.06560277938842773e-01,-6.28035783767700195e-01,5.79671561717987061e-01,-1.56021565198898315e-01,3.40494811534881592e-01,-3.03128391504287720e-01,-9.32069197297096252e-02,1.66021868586540222e-01,7.50976026058197021e-01,-9.90252196788787842e-02,-3.83956998586654663e-01,2.46245563030242920e-01,5.56913316249847412e-01,-2.98788212239742279e-02,-2.98915863037109375e-01,5.43874502182006836e-01,7.79561996459960938e-01,-4.16400171816349030e-02],"default_left":[true,true,true,true,true,true,true,true,true,true,true,true,true,true,true,false,true,true,true,true,true,true,false,true,true,true,true,true,true,false,true,false,false,true,false,false,true,false,true,false,true,true,true,false,false,false,true,false,false,true,false,false,false,false,true,false,false,false,false,false,false,false,false,false,false,false,false,false,false,false,false,false,false,false,false],"id":5,"leaf_child_counts":[0,0,0,0,0,0,0,1,0,0,1,0,0,0,1,0,2,1,1,1,1,0,0,2,1,2,1,2,1,0,2,0,0,2,0,0,2,0,2,0,2,2,2,0,0,0,2,0,0,2,0,0,0,0,2,0,0,0,0,0,0,0,0,0,0,0,0,0,0,0,0,0,0,0,0],"left_children":[1,3,5,7,9,11,13,15,17,19,21,23,25,27,29,-1,31,33,35,37,39,41,-1,43,45,47,49,51,53,-1,55,-1,-1,57,-1,-1,59,-1,61,-1,63,65,67,-1,-1,-1,69,-1,-1,71,-1,-1,-1,-1,73,-1,-1,-1,-1,-1,-1,-1,-1,-1,-1,-1,-1,-1,-1,-1,-1,-1,-1,-1,-1],"loss_changes":[2.63050150871276855e+00,2.51998805999755859e+00,1.97374367713928223e+00,3.82229280471801758e+00,1.61109018325805664e+00,3.13721942901611328e+00,9.80099678039550781e-01,6.31448388099670410e-01,5.69213867187500000e-01,1.24688541889190674e+00,1.42167997360229492e+00,1.80706477165222168e+00,1.45259404182434082e+00,1.01609516143798828e+00,1.29078805446624756e+00,0.00000000000000000e+00,2.73552894592285156e-01,1.04144573211669922e+00,1.07750010490417480e+00,3.54351878166198730e-01,3.36425423622131348e+00,1.00361108779907227e+00,0.00000000000000000e+00,2.22447490692138672e+00,8.44076752662658691e-01,1.96009397506713867e-01,1.03588771820068359e+00,3.05171966552734375e-01,1.29011535644531250e+00,0.00000000000000000e+00,6.93015038967132568e-01,0.00000000000000000e+00,0.00000000000000000e+00,4.75780963897705078e-01,0.00000000000000000e+00,0.00000000000000000e+00,1.35948657989501953e+00,0.00000000000000000e+00,5.28901994228363037e-01,0.00000000000000000e+00,1.40823197364807129e+00,8.61182212829589844e-01,4.74899709224700928e-01,0.00000000000000000e+00,0.00000000000000000e+00,0.00000000000000000e+00,8.15412759780883789e-01,0.00000000000000000e+00,0.00000000000000000e+00,1.33668994903564453e+00,0.00000000000000000e+00,0.00000000000000000e+00,0.00000000000000000e+00,0.00000000000000000e+00,6.25903606414794922e-01,0.00000000000000000e+00,0.00000000000000000e+00,0.00000000000000000e+00,0.00000000000000000e+00,0.00000000000000000e+00,0.00000000000000000e+00,0.00000000000000000e+00,0.00000000000000000e+00,0.00000000000000000e+00,0.00000000000000000e+00,0.00000000000000000e+00,0.00000000000000000e+00,0.00000000000000000e+00,0.00000000000000000e+00,0.00000000000000000e+00,0.00000000000000000e+00,0.00000000000000000e+00,0.00000000000000000e+00,0.00000000000000000e+00,0.00000000000000000e+00],"parents":[2147483647,0,0,1,1,2,2,3,3,4,4,5,5,6,6,7,7,8,8,9,9,10,10,11,11,12,12,13,13,14,14,16,16,17,17,18,18,19,19,20,20,21,21,23,23,24,24,25,25,26,26,27,27,28,28,30,30,33,33,36,36,38,38,40,40,41,41,42,42,46,46,49,49,54,54],"right_children":[2,4,6,8,10,12,14,16,18,20,22,24,26,28,30,-1,32,34,36,38,40,42,-1,44,46,48,50,52,54,-1,56,-1,-1,58,-1,-1,60,-1,62,-1,64,66,68,-1,-1,-1,70,-1,-1,72,-1,-1,-1,-1,74,-1,-1,-1,-1,-1,-1,-1,-1,-1,-1,-1,-1,-1,-1,-1,-1,-1,-1,-1,-1],"split_conditions":[6.71706676483154297e-01,-4.83467698097229004e-01,4.59737390279769897e-01,-1.67621302604675293e+00,1.48332011699676514e+00,-4.38289940357208252e-01,4.86981213092803955e-01,-2.28827047348022461e+00,-4.57651168107986450e-02,-1.31831824779510498e+00,1.47484099864959717e+00,1.06066656112670898e+00,-6.76861554384231567e-02,1.32678008079528809e+00,6.56330287456512451e-01,-7.92043562978506088e-03,-5.78199148178100586e-01,1.34397888183593750e+00,-1.11420941352844238e+00,4.35128509998321533e-01,-1.21318340301513672e+00,7.88535118103027344e-01,-6.23892508447170258e-02,1.22543239593505859e+00,-1.17123007774353027e+00,1.64371490478515625e+00,1.15336930751800537e+00,1.87845981121063232e+00,1.55329036712646484e+00,-5.41145168244838715e-02,1.43043470382690430e+00,1.43848076462745667e-01,3.78096550703048706e-02,2.40187823772430420e-01,4.33304794132709503e-02,-8.76404345035552979e-02,-8.07271718978881836e-01,-7.49269798398017883e-02,5.90442538261413574e-01,1.35888531804084778e-01,5.09139060974121094e-01,2.25551891326904297e+00,-1.16005659103393555e-01,1.27939209342002869e-01,-4.41753678023815155e-02,-5.73111474514007568e-02,-2.78781116008758545e-01,-8.78360569477081299e-02,-1.39402355998754501e-02,-3.30484390258789062e-01,-6.15798905491828918e-02,1.47469580173492432e-01,2.79658790677785873e-02,-6.34840205311775208e-02,2.28224492073059082e+00,1.07490561902523041e-01,-1.42953544855117798e-02,-4.59840446710586548e-02,-9.42053720355033875e-02,8.69507342576980591e-02,-2.34032347798347473e-02,5.10742254555225372e-02,-4.54692617058753967e-02,-1.39810387045145035e-02,2.49032806605100632e-02,1.12646408379077911e-01,-1.48537838831543922e-02,-5.75935505330562592e-02,3.69368344545364380e-02,8.35369974374771118e-02,-4.48182318359613419e-03,-4.48373816907405853e-02,8.15811753273010254e-02,1.16934306919574738e-01,-6.24600285664200783e-03],"split_indices":[2,3,3,2,3,3,0,2,2,0,1,2,0,3,3,0,0,0,0,1,0,0,0,0,3,2,0,2,3,0,3,0,0,1,0,0,0,0,1,0,0,3,1,0,0,0,0,0,0,1,0,0,0,0,3,0,0,0,0,0,0,0,0,0,0,0,0,0,0,0,0,0,0,0,0],"sum_hessian":[2.15578872680664062e+02,1.62115463256835938e+02,5.34634094238281250e+01,5.04119567871093750e+01,1.11703506469726562e+02,3.66502609252929688e+01,1.68131465911865234e+01,4.84091615676879883e+00,4.55710411071777344e+01,9.88246002197265625e+01,1.28789033889770508e+01,2.02433776855468750e+01,1.64068851470947266e+01,1.10464267730712891e+01,5.76672029495239258e+00,1.17394137382507324e+00,3.66697502136230469e+00,2.69104385375976562e+01,1.86606025695800781e+01,8.02459144592285156e+00,9.08000106811523438e+01,1.16338768005371094e+01,1.24502706527709961e+00,9.26297664642333984e+00,1.09804019927978516e+01,7.64591503143310547e+00,8.76096916198730469e+00,6.62051296234130859e+00,4.42591333389282227e+00,2.29410767555236816e+00,3.47261285781860352e+00,1.77257740497589111e+00,1.89439749717712402e+00,2.54795970916748047e+01,1.43084096908569336e+00,3.52541804313659668e+00,1.51351852416992188e+01,4.59192562103271484e+00,3.43266510963439941e+00,3.34066534042358398e+00,8.74593429565429688e+01,8.70869159698486328e+00,2.92518496513366699e+00,7.69726753234863281e+00,1.56570887565612793e+00,2.30694627761840820e+00,8.67345523834228516e+00,6.25943803787231445e+00,1.38647675514221191e+00,6.39297533035278320e+00,2.36799407005310059e+00,5.51791477203369141e+00,1.10259819030761719e+00,1.29516935348510742e+00,3.13074421882629395e+00,2.22680640220642090e+00,1.24580669403076172e+00,1.62074432373046875e+01,9.27215385437011719e+00,2.05911183357238770e+00,1.30760736465454102e+01,1.08974397182464600e+00,2.34292125701904297e+00,5.49553604125976562e+01,3.25039825439453125e+01,7.57525253295898438e+00,1.13343906402587891e+00,1.04893946647644043e+00,1.87624561786651611e+00,2.91130709648132324e+00,5.76214838027954102e+00,2.14037823677062988e+00,4.25259685516357422e+00,1.91026985645294189e+00,1.22047424316406250e+00],"tree_param":{"num_feature":"4","num_nodes":"75","size_leaf_vector":"0"}},{"base_weights":[-4.42070029675960541e-02,2.31665939092636108e-01,-6.84027597308158875e-02,-6.84010088443756104e-02,5.21067798137664795e-01,-5.48392459750175476e-02,-4.20094013214111328e-01,-4.20627981424331665e-01,4.07036542892456055e-02,7.41181492805480957e-01,-2.10106875747442245e-02,-1.46780878305435181e-01,3.92647832632064819e-03,-4.85265463590621948e-01,-3.71118560433387756e-02,4.55370426177978516e-01,-1.67890936136245728e-01,2.54095584154129028e-01,-2.41678893566131592e-01,-6.48320652544498444e-03,-3.30174922943115234e-01,5.65956115722656250e-01,-5.44787831604480743e-02,-5.57544410228729248e-01,-9.22679156064987183e-02,1.36576876044273376e-01,-3.41610729694366455e-01,1.64363145828247070e-01,-3.10591250658035278e-01,-3.87859046459197998e-01,-5.45832701027393341e-03,7.48010993003845215e-01,-2.82281879335641861e-02,2.34853535890579224e-01,-1.12774282693862915e-01,2.40923538804054260e-02,-4.87500280141830444e-01,-2.87656746804714203e-02,6.83505058288574219e-01,2.29383036494255066e-01,-4.03065174818038940e-01,-4.81278210878372192e-01,-1.23470306396484375e-01,-3.19292396306991577e-01,5.57766020298004150e-01,-3.20662967860698700e-02,8.70735824108123779e-01,-4.31371837854385376e-01,4.14184957742691040e-01,-4.20818716287612915e-01,3.51357460021972656e-01,-1.52212917804718018e-01,1.49806618690490723e-01],"default_left":[true,true,true,true,true,true,true,false,true,false,true,true,true,true,false,false,true,false,false,true,true,true,true,false,false,false,true,true,true,true,true,true,true,true,true,false,false,false,false,false,false,false,false,false,false,false,false,false,false,false,false,false,false],"id":6,"leaf_child_counts":[0,0,0,1,1,0,1,0,1,0,2,0,0,2,0,0,1,0,0,0,0,0,0,0,0,0,2,2,2,2,2,2,2,2,2,0,0,0,0,0,0,0,0,0,0,0,0,0,0,0,0,0,0],"left_children":[1,3,5,7,9,11,13,-1,15,-1,17,19,21,23,-1,-1,25,-1,-1,27,29,31,33,-1,-1,-1,35,37,39,41,43,45,47,49,51,-1,-1,-1,-1,-1,-1,-1,-1,-1,-1,-1,-1,-1,-1,-1,-1,-1,-1],"loss_changes":[1.44170284271240234e+00,1.55120980739593506e+00,9.17451202869415283e-01,3.80369126796722412e-01,1.08945870399475098e+00,1.03249406814575195e+00,1.60982847213745117e-01,0.00000000000000000e+00,7.79554307460784912e-01,0.00000000000000000e+00,2.78230488300323486e-01,1.91469955444335938e+00,3.88750576972961426e+00,1.20285153388977051e-01,0.00000000000000000e+00,0.00000000000000000e+00,3.71346265077590942e-01,0.00000000000000000e+00,0.00000000000000000e+00,2.29704022407531738e+00,6.02333307266235352e-01,1.22702550888061523e+00,1.83700370788574219e+00,0.00000000000000000e+00,0.00000000000000000e+00,0.00000000000000000e+00,2.35515922307968140e-01,2.86035728454589844e+00,8.86199116706848145e-01,6.17030143737792969e-01,1.21780884265899658e+00,8.48337173461914062e-01,8.16860258579254150e-01,1.54769039154052734e+00,9.55004811286926270e-01,0.00000000000000000e+00,0.00000000000000000e+00,0.00000000000000000e+00,0.00000000000000000e+00,0.00000000000000000e+00,0.00000000000000000e+00,0.00000000000000000e+00,0.00000000000000000e+00,0.00000000000000000e+00,0.00000000000000000e+00,0.00000000000000000e+00,0.00000000000000000e+00,0.00000000000000000e+00,0.00000000000000000e+00,0.00000000000000000e+00,0.00000000000000000e+00,0.00000000000000000e+00,0.00000000000000000e+00],"parents":[2147483647,0,0,1,1,2,2,3,3,4,4,5,5,6,6,8,8,10,10,11,11,12,12,13,13,16,16,19,19,20,20,21,21,22,22,26,26,27,27,28,28,29,29,30,30,31,31,32,32,33,33,34,34],"right_children":[2,4,6,8,10,12,14,-1,16,-1,18,20,22,24,-1,-1,26,-1,-1,28,30,32,34,-1,-1,-1,36,38,40,42,44,46,48,50,52,-1,-1,-1,-1,-1,-1,-1,-1,-1,-1,-1,-1,-1,-1,-1,-1,-1,-1],"split_conditions":[-1.34209167957305908e+00,9.62954759597778320e-02,1.91406011581420898e+00,-9.03546631336212158e-01,-1.64828121662139893e-01,-3.04617464542388916e-01,2.58614873886108398e+00,-6.30941987037658691e-02,-3.01545292139053345e-01,1.11177228391170502e-01,-6.73031449317932129e-01,1.67592316865921021e-01,-1.34983092546463013e-01,8.78175973892211914e-01,-5.56677859276533127e-03,6.83055669069290161e-02,-5.79895675182342529e-02,3.81143391132354736e-02,-3.62518355250358582e-02,-7.49568521976470947e-01,8.79829883575439453e-01,8.84707868099212646e-01,-7.87243008613586426e-01,-8.36316645145416260e-02,-1.38401882722973824e-02,2.04865317791700363e-02,-1.74750113487243652e+00,-1.92526310682296753e-01,-1.12686681747436523e+00,1.20567047595977783e+00,-5.60090303421020508e-01,-8.58415007591247559e-01,1.35214853286743164e+00,-1.22957086563110352e+00,1.06309664249420166e+00,3.61385312862694263e-03,-7.31250420212745667e-02,-4.31485148146748543e-03,1.02525763213634491e-01,3.44074554741382599e-02,-6.04597777128219604e-02,-7.21917375922203064e-02,-1.85205470770597458e-02,-4.78938631713390350e-02,8.36649090051651001e-02,-4.80994489043951035e-03,1.30610376596450806e-01,-6.47057816386222839e-02,6.21277466416358948e-02,-6.31228089332580566e-02,5.27036227285861969e-02,-2.28319391608238220e-02,2.24709939211606979e-02],"split_indices":[3,0,0,1,1,1,0,0,1,0,2,2,1,2,0,0,2,0,0,1,3,2,3,0,0,0,3,2,0,2,1,2,2,3,2,0,0,0,0,0,0,0,0,0,0,0,0,0,0,0,0,0,0],"sum_hessian":[2.12612884521484375e+02,1.64524307250976562e+01,1.96160446166992188e+02,8.45229721069335938e+00,8.00013446807861328e+00,1.89989151000976562e+02,6.17129516601562500e+00,1.32369363307952881e+00,7.12860345840454102e+00,5.42854976654052734e+00,2.57158470153808594e+00,7.34989624023437500e+01,1.16490188598632812e+02,5.04561948776245117e+00,1.12567555904388428e+00,1.98987507820129395e+00,5.13872814178466797e+00,1.07718265056610107e+00,1.49440217018127441e+00,4.22289123535156250e+01,3.12700519561767578e+01,1.01478643417358398e+01,1.06342323303222656e+02,3.90814757347106934e+00,1.13747203350067139e+00,1.94451248645782471e+00,3.19421577453613281e+00,2.73329334259033203e+01,1.48959798812866211e+01,2.63879280090332031e+01,4.88212490081787109e+00,7.56967067718505859e+00,2.57819342613220215e+00,1.73251991271972656e+01,8.90171279907226562e+01,1.14896082878112793e+00,2.04525494575500488e+00,2.06102066040039062e+01,6.72272586822509766e+00,1.96155321598052979e+00,1.29344263076782227e+01,1.88922080993652344e+01,7.49571895599365234e+00,3.41330003738403320e+00,1.46882498264312744e+00,1.12942242622375488e+00,6.44024848937988281e+00,1.36202311515808105e+00,1.21617019176483154e+00,2.21988058090209961e+00,1.51053180694580078e+01,7.77584304809570312e+01,1.12586946487426758e+01],"tree_param":{"num_feature":"4","num_nodes":"53","size_leaf_vector":"0"}},{"base_weights":[-4.42070029675960541e-02,2.31665939092636108e-01,-6.84027597308158875e-02,-6.84010088443756104e-02,5.21067798137664795e-01,-5.48392459750175476e-02,-4.20094013214111328e-01,-4.20627981424331665e-01,4.07036542892456055e-02,7.41181492805480957e-01,-2.10106875747442245e-02,-1.46780878305435181e-01,3.92647832632064819e-03,-4.85265463590621948e-01,-3.71118560433387756e-02,4.55370426177978516e-01,-1.67890936136245728e-01,2.54095584154129028e-01,-2.41678893566131592e-01,-6.48320652544498444e-03,-3.30174922943115234e-01,5.65956115722656250e-01,-5.44787831604480743e-02,-5.57544410228729248e-01,-9.22679156064987183e-02,1.36576876044273376e-01,-3.41610729694366455e-01,1.64363145828247070e-01,-3.10591250658035278e-01,-3.87859046459197998e-01,-5.45832701027393341e-03,7.48010993003845215e-01,-2.82281879335641861e-02,2.34853535890579224e-01,-1.12774282693862915e-01,2.40923538804054260e-02,-4.87500280141830444e-01,-2.87656746804714203e-02,6.83505058288574219e-01,2.29383036494255066e-01,-4.03065174818038940e-01,-4.81278210878372192e-01,-1.23470306396484375e-01,-3.19292396306991577e-01,5.57766020298004150e-01,-3.20662967860698700e-02,8.70735824108123779e-01,-4.31371837854385376e-01,4.14184957742691040e-01,-4.20818716287612915e-01,3.51357460021972656e-01,-1.52212917804718018e-01,1.49806618690490723e-01],"default_left":[true,true,true,true,true,true,true,false,true,false,true,true,true,true,false,false,true,false,false,true,true,true,true,false,false,false,true,true,true,true,true,true,true,true,true,false,false,false,false,false,false,false,false,false,false,false,false,false,false,false,false,false,false],"id":7,"leaf_child_counts":[0,0,0,1,1,0,1,0,1,0,2,0,0,2,0,0,1,0,0,0,0,0,0,0,0,0,2,2,2,2,2,2,2,2,2,0,0,0,0,0,0,0,0,0,0,0,0,0,0,0,0,0,0],"left_children":[1,3,5,7,9,11,13,-1,15,-1,17,19,21,23,-1,-1,25,-1,-1,27,29,31,33,-1,-1,-1,35,37,39,41,43,45,47,49,51,-1,-1,-1,-1,-1,-1,-1,-1,-1,-1,-1,-1,-1,-1,-1,-1,-1,-1],"loss_changes":[1.44170284271240234e+00,1.55120980739593506e+00,9.17451202869415283e-01,3.80369126796722412e-01,1.08945870399475098e+00,1.03249406814575195e+00,1.60982847213745117e-01,0.00000000000000000e+00,7.79554307460784912e-01,0.00000000000000000e+00,2.78230488300323486e-01,1.91469955444335938e+00,3.88750576972961426e+00,1.20285153388977051e-01,0.00000000000000000e+00,0.00000000000000000e+00,3.71346265077590942e-01,0.00000000000000000e+00,0.00000000000000000e+00,2.29704022407531738e+00,6.02333307266235352e-01,1.22702550888061523e+00,1.83700370788574219e+00,0.00000000000000000e+00,0.00000000000000000e+00,0.00000000000000000e+00,2.35515922307968140e-01,2.86035728454589844e+00,8.86199116706848145e-01,6.17030143737792969e-01,1.21780884265899658e+00,8.48337173461914062e-01,8.16860258579254150e-01,1.54769039154052734e+00,9.55004811286926270e-01,0.00000000000000000e+00,0.00000000000000000e+00,0.00000000000000000e+00,0.00000000000000000e+00,0.00000000000000000e+00,0.00000000000000000e+00,0.00000000000000000e+00,0.00000000000000000e+00,0.00000000000000000e+00,0.00000000000000000e+00,0.00000000000000000e+00,0.00000000000000000e+00,0.00000000000000000e+00,0.00000000000000000e+00,0.00000000000000000e+00,0.00000000000000000e+00,0.00000000000000000e+00,0.00000000000000000e+00],"parents":[2147483647,0,0,1,1,2,2,3,3,4,4,5,5,6,6,8,8,10,10,11,11,12,12,13,13,16,16,19,19,20,20,21,21,22,22,26,26,27,27,28,28,29,29,30,30,31,31,32,32,33,33,34,34],"right_children":[2,4,6,8,10,12,14,-1,16,-1,18,20,22,24,-1,-1,26,-1,-1,28,30,32,34,-1,-1,-1,36,38,40,42,44,46,48,50,52,-1,-1,-1,-1,-1,-1,-1,-1,-1,-1,-1,-1,-1,-1,-1,-1,-1,-1],"split_conditions":[-1.34209167957305908e+00,9.62954759597778320e-02,1.91406011581420898e+00,-9.03546631336212158e-01,-1.64828121662139893e-01,-3.04617464542388916e-01,2.58614873886108398e+00,-6.30941987037658691e-02,-3.01545292139053345e-01,1.11177228391170502e-01,-6.73031449317932129e-01,1.67592316865921021e-01,-1.34983092546463013e-01,8.78175973892211914e-01,-5.56677859276533127e-03,6.83055669069290161e-02,-5.79895675182342529e-02,3.81143391132354736e-02,-3.62518355250358582e-02,-7.49568521976470947e-01,8.79829883575439453e-01,8.84707868099212646e-01,-7.87243008613586426e-01,-8.36316645145416260e-02,-1.38401882722973824e-02,2.04865317791700363e-02,-1.74750113487243652e+00,-1.92526310682296753e-01,-1.12686681747436523e+00,1.20567047595977783e+00,-5.60090303421020508e-01,-8.58415007591247559e-01,1.35214853286743164e+00,-1.22957086563110352e+00,1.06309664249420166e+00,3.61385312862694263e-03,-7.31250420212745667e-02,-4.31485148146748543e-03,1.02525763213634491e-01,3.44074554741382599e-02,-6.04597777128219604e-02,-7.21917375922203064e-02,-1.85205470770597458e-02,-4.78938631713390350e-02,8.36649090051651001e-02,-4.80994489043951035e-03,1.30610376596450806e-01,-6.47057816386222839e-02,6.21277466416358948e-02,-6.31228089332580566e-02,5.27036227285861969e-02,-2.28319391608238220e-02,2.24709939211606979e-02],"split_indices":[3,0,0,1,1,1,0,0,1,0,2,2,1,2,0,0,2,0,0,1,3,2,3,0,0,0,3,2,0,2,1,2,2,3,2,0,0,0,0,0,0,0,0,0,0,0,0,0,0,0,0,0,0],"sum_hessian":[2.12612884521484375e+02,1.64524307250976562e+01,1.96160446166992188e+02,8.45229721069335938e+00,8.00013446807861328e+00,1.89989151000976562e+02,6.17129516601562500e+00,1.32369363307952881e+00,7.12860345840454102e+00,5.42854976654052734e+00,2.57158470153808594e+00,7.34989624023437500e+01,1.16490188598632812e+02,5.04561948776245117e+00,1.12567555904388428e+00,1.98987507820129395e+00,5.13872814178466797e+00,1.07718265056610107e+00,1.49440217018127441e+00,4.22289123535156250e+01,3.12700519561767578e+01,1.01478643417358398e+01,1.06342323303222656e+02,3.90814757347106934e+00,1.13747203350067139e+00,1.94451248645782471e+00,3.19421577453613281e+00,2.73329334259033203e+01,1.48959798812866211e+01,2.63879280090332031e+01,4.88212490081787109e+00,7.56967067718505859e+00,2.57819342613220215e+00,1.73251991271972656e+01,8.90171279907226562e+01,1.14896082878112793e+00,2.04525494575500488e+00,2.06102066040039062e+01,6.72272586822509766e+00,1.96155321598052979e+00,1.29344263076782227e+01,1.88922080993652344e+01,7.49571895599365234e+00,3.41330003738403320e+00,1.46882498264312744e+00,1.12942242622375488e+00,6.44024848937988281e+00,1.36202311515808105e+00,1.21617019176483154e+00,2.21988058090209961e+00,1.51053180694580078e+01,7.77584304809570312e+01,1.12586946487426758e+01],"tree_param":{"num_feature":"4","num_nodes":"53","size_leaf_vector":"0"}},{"base_weights":[1.56662892550230026e-02,3.72956395149230957e-02,-3.43779027462005615e-01,8.27254503965377808e-02,-1.18257477879524231e-01,-1.80894583463668823e-02,-5.48759579658508301e-01,3.95051032304763794e-01,4.72680777311325073e-02,-3.87000352144241333e-01,-8.58526956290006638e-03,-3.94130796194076538e-01,5.00667870044708252e-01,5.13863503932952881e-01,-3.97774994373321533e-01,-1.86227589845657349e-01,8.50984975695610046e-02,-4.89390730857849121e-01,9.47345942258834839e-02,1.62100389599800110e-01,-2.42975831031799316e-01,2.40550786256790161e-01,7.52941250801086426e-01,3.76513153314590454e-01,-3.08864116668701172e-01,-4.37560379505157471e-01,1.05340264737606049e-01,-7.82008171081542969e-02,-5.29194295406341553e-01,-2.23759964108467102e-01,3.41136902570724487e-01,3.04360508918762207e-01,-1.57256647944450378e-01,-3.18903058767318726e-01,3.67036432027816772e-01,-1.23235352337360382e-01,5.50641596317291260e-01,8.11771214008331299e-01,2.16292217373847961e-01,4.50680047273635864e-01,9.42509323358535767e-02,-4.59991157054901123e-01,6.29007956013083458e-03,-6.33242279291152954e-02,-5.35982787609100342e-01,1.67601242661476135e-01,-5.22038191556930542e-02,-6.15522146224975586e-01,-1.70129984617233276e-01,6.01754963397979736e-01,3.55737954378128052e-02,-4.47168827056884766e-01,3.62460881471633911e-01,-4.03393894433975220e-01,3.44648033380508423e-01],"default_left":[true,true,true,true,true,true,false,true,true,true,true,false,false,true,false,true,true,true,true,true,true,true,true,true,true,true,true,false,true,false,false,true,true,true,false,false,false,false,false,false,false,false,false,false,false,false,false,false,false,false,false,false,false,false,false],"id":8,"leaf_child_counts":[0,0,1,0,0,2,0,1,0,0,0,0,0,0,0,0,0,1,2,0,1,2,2,2,2,2,2,0,2,0,0,2,2,2,0,0,0,0,0,0,0,0,0,0,0,0,0,0,0,0,0,0,0,0,0],"left_children":[1,3,5,7,9,11,-1,13,15,17,19,-1,-1,21,-1,23,25,27,29,31,33,35,37,39,41,43,45,-1,47,-1,-1,49,51,53,-1,-1,-1,-1,-1,-1,-1,-1,-1,-1,-1,-1,-1,-1,-1,-1,-1,-1,-1,-1,-1],"loss_changes":[1.69363236427307129e+00,1.45722734928131104e+00,8.15811872482299805e-01,1.74340367317199707e+00,1.37338447570800781e+00,1.33104813098907471e+00,0.00000000000000000e+00,1.71968960762023926e+00,1.28808689117431641e+00,7.12976932525634766e-01,1.40743172168731689e+00,0.00000000000000000e+00,0.00000000000000000e+00,7.61523246765136719e-01,0.00000000000000000e+00,1.52381944656372070e+00,1.36465644836425781e+00,1.43691778182983398e-01,3.27994912862777710e-01,9.74044978618621826e-01,8.02942991256713867e-01,9.92939233779907227e-01,5.25374412536621094e-02,4.33550477027893066e-02,8.26635599136352539e-01,1.44366085529327393e-01,1.19358444213867188e+00,0.00000000000000000e+00,2.09485769271850586e-01,0.00000000000000000e+00,0.00000000000000000e+00,1.13320875167846680e+00,1.20803642272949219e+00,9.07369971275329590e-01,0.00000000000000000e+00,0.00000000000000000e+00,0.00000000000000000e+00,0.00000000000000000e+00,0.00000000000000000e+00,0.00000000000000000e+00,0.00000000000000000e+00,0.00000000000000000e+00,0.00000000000000000e+00,0.00000000000000000e+00,0.00000000000000000e+00,0.00000000000000000e+00,0.00000000000000000e+00,0.00000000000000000e+00,0.00000000000000000e+00,0.00000000000000000e+00,0.00000000000000000e+00,0.00000000000000000e+00,0.00000000000000000e+00,0.00000000000000000e+00,0.00000000000000000e+00],"parents":[2147483647,0,0,1,1,2,2,3,3,4,4,5,5,7,7,8,8,9,9,10,10,13,13,15,15,16,16,17,17,18,18,19,19,20,20,21,21,22,22,23,23,24,24,25,25,26,26,28,28,31,31,32,32,33,33],"right_children":[2,4,6,8,10,12,-1,14,16,18,20,-1,-1,22,-1,24,26,28,30,32,34,36,38,40,42,44,46,-1,48,-1,-1,50,52,54,-1,-1,-1,-1,-1,-1,-1,-1,-1,-1,-1,-1,-1,-1,-1,-1,-1,-1,-1,-1,-1],"split_conditions":[1.68628263473510742e+00,7.62272596359252930e-01,1.79565817117691040e-01,-1.31397533416748047e+00,-6.79141283035278320e-01,-2.57205456495285034e-01,-8.23139399290084839e-02,8.09562802314758301e-01,-1.18536353111267090e+00,1.30088055133819580e+00,1.00274041295051575e-01,-5.91196231544017792e-02,7.51001834869384766e-02,-1.56858515739440918e+00,-5.96662499010562897e-02,-2.37427973747253418e+00,-1.20328402519226074e+00,-1.70660901069641113e+00,9.88255858421325684e-01,5.04518866539001465e-01,1.37444317340850830e+00,-2.64289915561676025e-01,4.75347816944122314e-01,5.00373005867004395e-01,3.23580920696258545e-01,-4.26771938800811768e-01,7.12418198585510254e-01,-1.17301233112812042e-02,1.38271808624267578e+00,-3.35639975965023041e-02,5.11705391108989716e-02,1.19293582439422607e+00,1.85435318946838379e+00,1.32678008079528809e+00,5.50554655492305756e-02,-1.84853039681911469e-02,8.25962424278259277e-02,1.21765688061714172e-01,3.24438326060771942e-02,6.76020085811614990e-02,1.41376405954360962e-02,-6.89986795186996460e-02,9.43511957302689552e-04,-9.49863437563180923e-03,-8.03974196314811707e-02,2.51401867717504501e-02,-7.83057324588298798e-03,-9.23283249139785767e-02,-2.55194995552301407e-02,9.02632474899291992e-02,5.33606950193643570e-03,-6.70753270387649536e-02,5.43691329658031464e-02,-6.05090856552124023e-02,5.16972057521343231e-02],"split_indices":[3,2,1,0,3,1,0,3,1,0,1,0,0,0,0,1,0,1,2,3,0,2,3,3,0,1,1,0,2,0,0,2,2,3,0,0,0,0,0,0,0,0,0,0,0,0,0,0,0,0,0,0,0,0,0],"sum_hessian":[2.15193435668945312e+02,2.03824676513671875e+02,1.13687553405761719e+01,1.58114883422851562e+02,4.57097969055175781e+01,4.81173467636108398e+00,6.55702066421508789e+00,1.50862598419189453e+01,1.43028625488281250e+02,1.25147390365600586e+01,3.31950569152832031e+01,2.92887020111083984e+00,1.88286447525024414e+00,1.34260921478271484e+01,1.66016805171966553e+00,1.93952426910400391e+01,1.23633384704589844e+02,1.03079442977905273e+01,2.20679450035095215e+00,1.93862228393554688e+01,1.38088340759277344e+01,7.20058012008666992e+00,6.22551202774047852e+00,3.10002756118774414e+00,1.62952156066894531e+01,3.84092283248901367e+00,1.19792457580566406e+02,1.17140805721282959e+00,9.13653659820556641e+00,1.00266373157501221e+00,1.20413076877593994e+00,1.34443082809448242e+01,5.94191455841064453e+00,1.27047166824340820e+01,1.10411691665649414e+00,3.59069895744323730e+00,3.60988092422485352e+00,5.14844846725463867e+00,1.07706344127655029e+00,1.98244988918304443e+00,1.11757767200469971e+00,1.07031297683715820e+01,5.59208631515502930e+00,1.14200711250305176e+00,2.69891571998596191e+00,8.58148422241210938e+01,3.39776191711425781e+01,6.78985118865966797e+00,2.34668517112731934e+00,5.79440593719482422e+00,7.64990234375000000e+00,3.90384149551391602e+00,2.03807330131530762e+00,1.16175117492675781e+01,1.08720517158508301e+00],"tree_param":{"num_feature":"4","num_nodes":"55","size_leaf_vector":"0"}},{"base_weights":[1.56662892550230026e-02,3.72956395149230957e-02,-3.43779027462005615e-01,8.27254503965377808e-02,-1.18257477879524231e-01,-1.80894583463668823e-02,-5.48759579658508301e-01,3.95051032304763794e-01,4.72680777311325073e-02,-3.87000352144241333e-01,-8.58526956290006638e-03,-3.94130796194076538e-01,5.00667870044708252e-01,5.13863503932952881e-01,-3.97774994373321533e-01,-1.86227589845657349e-01,8.50984975695610046e-02,-4.89390730857849121e-01,9.47345942258834839e-02,1.62100389599800110e-01,-2.42975831031799316e-01,2.40550786256790161e-01,7.52941250801086426e-01,3.76513153314590454e-01,-3.08864116668701172e-01,-4.37560379505157471e-01,1.05340264737606049e-01,-7.82008171081542969e-02,-5.29194295406341553e-01,-2.23759964108467102e-01,3.41136902570724487e-01,3.04360508918762207e-01,-1.57256647944450378e-01,-3.18903058767318726e-01,3.67036432027816772e-01,-1.23235352337360382e-01,5.50641596317291260e-01,8.11771214008331299e-01,2.16292217373847961e-01,4.50680047273635864e-01,9.42509323358535767e-02,-4.59991157054901123e-01,6.29007956013083458e-03,-6.33242279291152954e-02,-5.35982787609100342e-01,1.67601242661476135e-01,-5.22038191556930542e-02,-6.15522146224975586e-01,-1.70129984617233276e-01,6.01754963397979736e-01,3.55737954378128052e-02,-4.47168827056884766e-01,3.62460881471633911e-01,-4.03393894433975220e-01,3.44648033380508423e-01],"default_left":[true,true,true,true,true,true,false,true,true,true,true,false,false,true,false,true,true,true,true,true,true,true,true,true,true,true,true,false,true,false,false,true,true,true,false,false,false,false,false,false,false,false,false,false,false,false,false,false,false,false,false,false,false,false,false],"id":9,"leaf_child_counts":[0,0,1,0,0,2,0,1,0,0,0,0,0,0,0,0,0,1,2,0,1,2,2,2,2,2,2,0,2,0,0,2,2,2,0,0,0,0,0,0,0,0,0,0,0,0,0,0,0,0,0,0,0,0,0],"left_children":[1,3,5,7,9,11,-1,13,15,17,19,-1,-1,21,-1,23,25,27,29,31,33,35,37,39,41,43,45,-1,47,-1,-1,49,51,53,-1,-1,-1,-1,-1,-1,-1,-1,-1,-1,-1,-1,-1,-1,-1,-1,-1,-1,-1,-1,-1],"loss_changes":[1.69363236427307129e+00,1.45722734928131104e+00,8.15811872482299805e-01,1.74340367317199707e+00,1.37338447570800781e+00,1.33104813098907471e+00,0.00000000000000000e+00,1.71968960762023926e+00,1.28808689117431641e+00,7.12976932525634766e-01,1.40743172168731689e+00,0.00000000000000000e+00,0.00000000000000000e+00,7.61523246765136719e-01,0.00000000000000000e+00,1.52381944656372070e+00,1.36465644836425781e+00,1.43691778182983398e-01,3.27994912862777710e-01,9.74044978618621826e-01,8.02942991256713867e-01,9.92939233779907227e-01,5.25374412536621094e-02,4.33550477027893066e-02,8.26635599136352539e-01,1.44366085529327393e-01,1.19358444213867188e+00,0.00000000000000000e+00,2.09485769271850586e-01,0.00000000000000000e+00,0.00000000000000000e+00,1.13320875167846680e+00,1.20803642272949219e+00,9.07369971275329590e-01,0.00000000000000000e+00,0.00000000000000000e+00,0.00000000000000000e+00,0.00000000000000000e+00,0.00000000000000000e+00,0.00000000000000000e+00,0.00000000000000000e+00,0.00000000000000000e+00,0.00000000000000000e+00,0.00000000000000000e+00,0.00000000000000000e+00,0.00000000000000000e+00,0.00000000000000000e+00,0.00000000000000000e+00,0.00000000000000000e+00,0.00000000000000000e+00,0.00000000000000000e+00,0.00000000000000000e+00,0.00000000000000000e+00,0.00000000000000000e+00,0.00000000000000000e+00],"parents":[2147483647,0,0,1,1,2,2,3,3,4,4,5,5,7,7,8,8,9,9,10,10,13,13,15,15,16,16,17,17,18,18,19,19,20,20,21,21,22,22,23,23,24,24,25,25,26,26,28,28,31,31,32,32,33,33],"right_children":[2,4,6,8,10,12,-1,14,16,18,20,-1,-1,22,-1,24,26,28,30,32,34,36,38,40,42,44,46,-1,48,-1,-1,50,52,54,-1,-1,-1,-1,-1,-1,-1,-1,-1,-1,-1,-1,-1,-1,-1,-1,-1,-1,-1,-1,-1],"split_conditions":[1.68628263473510742e+00,7.62272596359252930e-01,1.79565817117691040e-01,-1.31397533416748047e+00,-6.79141283035278320e-01,-2.57205456495285034e-01,-8.23139399290084839e-02,8.09562802314758301e-01,-1.18536353111267090e+00,1.30088055133819580e+00,1.00274041295051575e-01,-5.91196231544017792e-02,7.51001834869384766e-02,-1.56858515739440918e+00,-5.96662499010562897e-02,-2.37427973747253418e+00,-1.20328402519226074e+00,-1.70660901069641113e+00,9.88255858421325684e-01,5.04518866539001465e-01,1.37444317340850830e+00,-2.64289915561676025e-01,4.75347816944122314e-01,5.00373005867004395e-01,3.23580920696258545e-01,-4.26771938800811768e-01,7.12418198585510254e-01,-1.17301233112812042e-02,1.38271808624267578e+00,-3.35639975965023041e-02,5.11705391108989716e-02,1.19293582439422607e+00,1.85435318946838379e+00,1.32678008079528809e+00,5.50554655492305756e-02,-1.84853039681911469e-02,8.25962424278259277e-02,1.21765688061714172e-01,3.24438326060771942e-02,6.76020085811614990e-02,1.41376405954360962e-02,-6.89986795186996460e-02,9.43511957302689552e-04,-9.49863437563180923e-03,-8.03974196314811707e-02,2.51401867717504501e-02,-7.83057324588298798e-03,-9.23283249139785767e-02,-2.55194995552301407e-02,9.02632474899291992e-02,5.33606950193643570e-03,-6.70753270387649536e-02,5.43691329658031464e-02,-6.05090856552124023e-02,5.16972057521343231e-02],"split_indices":[3,2,1,0,3,1,0,3,1,0,1,0,0,0,0,1,0,1,2,3,0,2,3,3,0,1,1,0,2,0,0,2,2,3,0,0,0,0,0,0,0,0,0,0,0,0,0,0,0,0,0,0,0,0,0],"sum_hessian":[2.15193435668945312e+02,2.03824676513671875e+02,1.13687553405761719e+01,1.58114883422851562e+02,4.57097969055175781e+01,4.81173467636108398e+00,6.55702066421508789e+00,1.50862598419189453e+01,1.43028625488281250e+02,1.25147390365600586e+01,3.31950569152832031e+01,2.92887020111083984e+00,1.88286447525024414e+00,1.34260921478271484e+01,1.66016805171966553e+00,1.93952426910400391e+01,1.23633384704589844e+02,1.03079442977905273e+01,2.20679450035095215e+00,1.93862228393554688e+01,1.38088340759277344e+01,7.20058012008666992e+00,6.22551202774047852e+00,3.10002756118774414e+00,1.62952156066894531e+01,3.84092283248901367e+00,1.19792457580566406e+02,1.17140805721282959e+00,9.13653659820556641e+00,1.00266373157501221e+00,1.20413076877593994e+00,1.34443082809448242e+01,5.94191455841064453e+00,1.27047166824340820e+01,1.10411691665649414e+00,3.59069895744323730e+00,3.60988092422485352e+00,5.14844846725463867e+00,1.07706344127655029e+00,1.98244988918304443e+00,1.11757767200469971e+00,1.07031297683715820e+01,5.59208631515502930e+00,1.14200711250305176e+00,2.69891571998596191e+00,8.58148422241210938e+01,3.39776191711425781e+01,6.78985118865966797e+00,2.34668517112731934e+00,5.79440593719482422e+00,7.64990234375000000e+00,3.90384149551391602e+00,2.03807330131530762e+00,1.16175117492675781e+01,1.08720517158508301e+00],"tree_param":{"num_feature":"4","num_nodes":"55","size_leaf_vector":"0"}},{"base_weights":[2.79855020344257355e-02,-2.39901524037122726e-02,1.79284676909446716e-01,-1.78051501512527466e-01,4.39615473151206970e-02,1.17816433310508728e-01,6.75212860107421875e-01,4.80112016201019287e-01,-2.62875586748123169e-01,9.48015227913856506e-03,2.78478354215621948e-01,6.45990252494812012e-01,6.14443309605121613e-02,1.40148922801017761e-01,8.63265454769134521e-01,-5.01712337136268616e-02,6.17685139179229736e-01,-4.92857068777084351e-01,-2.10734710097312927e-01,4.49772663414478302e-02,-3.00620853900909424e-01,3.71083021163940430e-01,-4.01920974254608154e-01,2.10884243249893188e-01,8.07438910007476807e-01,1.84229180216789246e-01,-2.06676110625267029e-01,8.04383754730224609e-01,2.21841424703598022e-01,6.30979239940643311e-02,-5.95324933528900146e-01,3.88879477977752686e-01,-2.46691375970840454e-01,-4.33727353811264038e-02,2.23840743303298950e-01,3.91101300716400146e-01,-4.59915667772293091e-01,9.29975360631942749e-02,5.77338695526123047e-01,6.96293562650680542e-02,6.99573516845703125e-01,-3.36797028779983521e-01,1.37768462300300598e-02,-4.85140323638916016e-01,-1.67455375194549561e-01,5.25923445820808411e-03,-3.25517982244491577e-01,-2.52985328435897827e-01,3.69138807058334351e-01,-4.96488422155380249e-01,-1.25208929181098938e-01,5.71872174739837646e-01,-2.70979642868041992e-01,7.60232985019683838e-01,-1.53577089309692383e-01,3.04455429315567017e-01,-1.11860893666744232e-01,3.03402334451675415e-01,8.30590367317199707e-01,2.29069784283638000e-01,-5.38497447967529297e-01,-3.49048495292663574e-01,4.97685194015502930e-01],"default_left":[true,true,true,true,true,true,true,true,true,true,true,true,true,false,false,false,true,true,true,true,true,true,false,false,false,true,true,false,false,false,false,false,true,true,true,false,true,true,true,true,true,true,true,false,false,false,false,false,false,false,false,false,false,false,false,false,false,false,false,false,false,false,false],"id":10,"leaf_child_counts":[0,0,0,0,0,0,2,1,0,0,1,2,0,0,0,0,2,2,1,0,1,0,0,0,0,0,0,0,0,0,0,0,2,2,2,0,2,2,2,2,2,2,2,0,0,0,0,0,0,0,0,0,0,0,0,0,0,0,0,0,0,0,0],"left_children":[1,3,5,7,9,11,13,15,17,19,21,23,25,-1,-1,-1,27,29,31,33,35,37,-1,-1,-1,39,41,-1,-1,-1,-1,-1,43,45,47,-1,49,51,53,55,57,59,61,-1,-1,-1,-1,-1,-1,-1,-1,-1,-1,-1,-1,-1,-1,-1,-1,-1,-1,-1,-1],"loss_changes":[1.70609259605407715e+00,1.70329058170318604e+00,1.61081612110137939e+00,2.90464663505554199e+00,9.12645339965820312e-01,1.46532559394836426e+00,4.73040819168090820e-01,4.71303582191467285e-01,4.32539939880371094e-01,1.11113858222961426e+00,1.06110143661499023e+00,1.64773106575012207e-01,1.57806181907653809e+00,0.00000000000000000e+00,0.00000000000000000e+00,0.00000000000000000e+00,1.81274652481079102e-01,4.65974807739257812e-01,9.19785141944885254e-01,1.43734169006347656e+00,1.32273507118225098e+00,7.06838607788085938e-01,0.00000000000000000e+00,0.00000000000000000e+00,0.00000000000000000e+00,1.87739479541778564e+00,4.39640522003173828e-01,0.00000000000000000e+00,0.00000000000000000e+00,0.00000000000000000e+00,0.00000000000000000e+00,0.00000000000000000e+00,6.11441135406494141e-01,8.42954218387603760e-01,2.17408943176269531e+00,0.00000000000000000e+00,4.66600656509399414e-02,1.34692966938018799e+00,1.10880208015441895e+00,1.21847319602966309e+00,5.02171516418457031e-02,1.21622776985168457e+00,1.33061397075653076e+00,0.00000000000000000e+00,0.00000000000000000e+00,0.00000000000000000e+00,0.00000000000000000e+00,0.00000000000000000e+00,0.00000000000000000e+00,0.00000000000000000e+00,0.00000000000000000e+00,0.00000000000000000e+00,0.00000000000000000e+00,0.00000000000000000e+00,0.00000000000000000e+00,0.00000000000000000e+00,0.00000000000000000e+00,0.00000000000000000e+00,0.00000000000000000e+00,0.00000000000000000e+00,0.00000000000000000e+00,0.00000000000000000e+00,0.00000000000000000e+00],"parents":[2147483647,0,0,1,1,2,2,3,3,4,4,5,5,6,6,7,7,8,8,9,9,10,10,11,11,12,12,16,16,17,17,18,18,19,19,20,20,21,21,25,25,26,26,32,32,33,33,34,34,36,36,37,37,38,38,39,39,40,40,41,41,42,42],"right_children":[2,4,6,8,10,12,14,16,18,20,22,24,26,-1,-1,-1,28,30,32,34,36,38,-1,-1,-1,40,42,-1,-1,-1,-1,-1,44,46,48,-1,50,52,54,56,58,60,62,-1,-1,-1,-1,-1,-1,-1,-1,-1,-1,-1,-1,-1,-1,-1,-1,-1,-1,-1,-1],"split_conditions":[6.71706676483154297e-01,-4.83467698097229004e-01,1.32924079895019531e+00,-1.67621302604675293e+00,1.48332011699676514e+00,-1.36202812194824219e+00,2.04263292253017426e-02,-2.28827047348022461e+00,-1.11420941352844238e+00,1.13646674156188965e+00,1.47484099864959717e+00,-1.81496214866638184e+00,4.86981213092803955e-01,2.10223384201526642e-02,1.29489824175834656e-01,-7.52568524330854416e-03,-5.78199148178100586e-01,-1.50849390029907227e+00,-9.97113466262817383e-01,5.09139060974121094e-01,-1.73146772384643555e+00,-3.42313021421432495e-01,-6.02881498634815216e-02,3.16326394677162170e-02,1.21115840971469879e-01,2.21320688724517822e-01,1.16964876651763916e-01,1.20657570660114288e-01,3.32762151956558228e-02,9.46468859910964966e-03,-8.92987400293350220e-02,5.83319254219532013e-02,-1.44814276695251465e+00,2.61996477842330933e-01,-6.00670933723449707e-01,5.86651973426342010e-02,4.26276087760925293e-01,-1.03246998786926270e+00,2.25551891326904297e+00,-4.29891705513000488e-01,3.83245944976806641e-01,-6.92899286746978760e-01,1.48207354545593262e+00,-7.27710500359535217e-02,-2.51183081418275833e-02,7.88885226938873529e-04,-4.88277003169059753e-02,-3.79478000104427338e-02,5.53708225488662720e-02,-7.44732692837715149e-02,-1.87813397496938705e-02,8.57808291912078857e-02,-4.06469479203224182e-02,1.14034950733184814e-01,-2.30365637689828873e-02,4.56683151423931122e-02,-1.67791340500116348e-02,4.55103516578674316e-02,1.24588556587696075e-01,3.43604683876037598e-02,-8.07746201753616333e-02,-5.23572750389575958e-02,7.46527835726737976e-02],"split_indices":[2,3,1,2,3,1,3,2,0,3,1,1,0,0,0,0,0,3,0,0,1,2,0,0,0,0,1,0,0,0,0,0,3,0,1,0,2,2,3,3,0,3,2,0,0,0,0,0,0,0,0,0,0,0,0,0,0,0,0,0,0,0,0],"sum_hessian":[2.15406265258789062e+02,1.60954986572265625e+02,5.44512710571289062e+01,4.87677001953125000e+01,1.12187294006347656e+02,4.95476150512695312e+01,4.90365409851074219e+00,5.03559875488281250e+00,4.37321014404296875e+01,9.87136840820312500e+01,1.34736127853393555e+01,3.76956701278686523e+00,4.57780494689941406e+01,1.72910749912261963e+00,3.17454671859741211e+00,1.16816294193267822e+00,3.86743569374084473e+00,6.52026939392089844e+00,3.72118301391601562e+01,8.93417358398437500e+01,9.37194728851318359e+00,1.22596435546875000e+01,1.21396899223327637e+00,1.64431607723236084e+00,2.12525081634521484e+00,3.16135959625244141e+01,1.41644525527954102e+01,1.92665863037109375e+00,1.94077694416046143e+00,1.07451939582824707e+00,5.44574975967407227e+00,1.54993093013763428e+00,3.56618995666503906e+01,6.03093223571777344e+01,2.90324115753173828e+01,1.48186933994293213e+00,7.89007759094238281e+00,5.83859968185424805e+00,6.42104339599609375e+00,2.67910423278808594e+01,4.82255268096923828e+00,8.57522869110107422e+00,5.58922338485717773e+00,7.61698722839355469e+00,2.80449123382568359e+01,5.22795219421386719e+01,8.02980041503906250e+00,6.60746955871582031e+00,2.24249420166015625e+01,6.67712688446044922e+00,1.21295082569122314e+00,2.27468466758728027e+00,3.56391525268554688e+00,5.10382270812988281e+00,1.31722068786621094e+00,1.13840065002441406e+01,1.54070367813110352e+01,2.02253270149230957e+00,2.80002021789550781e+00,2.21773099899291992e+00,6.35749816894531250e+00,3.35351228713989258e+00,2.23571133613586426e+00],"tree_param":{"num_feature":"4","num_nodes":"63","size_leaf_vector":"0"}},{"base_weights":[2.79855020344257355e-02,-2.39901524037122726e-02,1.79284676909446716e-01,-1.78051501512527466e-01,4.39615473151206970e-02,1.17816433310508728e-01,6.75212860107421875e-01,4.80112016201019287e-01,-2.62875586748123169e-01,9.48015227913856506e-03,2.78478354215621948e-01,6.45990252494812012e-01,6.14443309605121613e-02,1.40148922801017761e-01,8.63265454769134521e-01,-5.01712337136268616e-02,6.17685139179229736e-01,-4.92857068777084351e-01,-2.10734710097312927e-01,4.49772663414478302e-02,-3.00620853900909424e-01,3.71083021163940430e-01,-4.01920974254608154e-01,2.10884243249893188e-01,8.07438910007476807e-01,1.84229180216789246e-01,-2.06676110625267029e-01,8.04383754730224609e-01,2.21841424703598022e-01,6.30979239940643311e-02,-5.95324933528900146e-01,3.88879477977752686e-01,-2.46691375970840454e-01,-4.33727353811264038e-02,2.23840743303298950e-01,3.91101300716400146e-01,-4.59915667772293091e-01,9.29975360631942749e-02,5.77338695526123047e-01,6.96293562650680542e-02,6.99573516845703125e-01,-3.36797028779983521e-01,1.37768462300300598e-02,-4.85140323638916016e-01,-1.67455375194549561e-01,5.25923445820808411e-03,-3.25517982244491577e-01,-2.52985328435897827e-01,3.69138807058334351e-01,-4.96488422155380249e-01,-1.25208929181098938e-01,5.71872174739837646e-01,-2.70979642868041992e-01,7.60232985019683838e-01,-1.53577089309692383e-01,3.04455429315567017e-01,-1.11860893666744232e-01,3.03402334451675415e-01,8.30590367317199707e-01,2.29069784283638000e-01,-5.38497447967529297e-01,-3.49048495292663574e-01,4.97685194015502930e-01],"default_left":[true,true,true,true,true,true,true,true,true,true,true,true,true,false,false,false,true,true,true,true,true,true,false,false,false,true,true,false,false,false,false,false,true,true,true,false,true,true,true,true,true,true,true,false,false,false,false,false,false,false,false,false,false,false,false,false,false,false,false,false,false,false,false],"id":11,"leaf_child_counts":[0,0,0,0,0,0,2,1,0,0,1,2,0,0,0,0,2,2,1,0,1,0,0,0,0,0,0,0,0,0,0,0,2,2,2,0,2,2,2,2,2,2,2,0,0,0,0,0,0,0,0,0,0,0,0,0,0,0,0,0,0,0,0],"left_children":[1,3,5,7,9,11,13,15,17,19,21,23,25,-1,-1,-1,27,29,31,33,35,37,-1,-1,-1,39,41,-1,-1,-1,-1,-1,43,45,47,-1,49,51,53,55,57,59,61,-1,-1,-1,-1,-1,-1,-1,-1,-1,-1,-1,-1,-1,-1,-1,-1,-1,-1,-1,-1],"loss_changes":[1.70609259605407715e+00,1.70329058170318604e+00,1.61081612110137939e+00,2.90464663505554199e+00,9.12645339965820312e-01,1.46532559394836426e+00,4.73040819168090820e-01,4.71303582191467285e-01,4.32539939880371094e-01,1.11113858222961426e+00,1.06110143661499023e+00,1.64773106575012207e-01,1.57806181907653809e+00,0.00000000000000000e+00,0.00000000000000000e+00,0.00000000000000000e+00,1.81274652481079102e-01,4.65974807739257812e-01,9.19785141944885254e-01,1.43734169006347656e+00,1.32273507118225098e+00,7.06838607788085938e-01,0.00000000000000000e+00,0.00000000000000000e+00,0.00000000000000000e+00,1.87739479541778564e+00,4.39640522003173828e-01,0.00000000000000000e+00,0.00000000000000000e+00,0.00000000000000000e+00,0.00000000000000000e+00,0.00000000000000000e+00,6.11441135406494141e-01,8.42954218387603760e-01,2.17408943176269531e+00,0.00000000000000000e+00,4.66600656509399414e-02,1.34692966938018799e+00,1.10880208015441895e+00,1.21847319602966309e+00,5.02171516418457031e-02,1.21622776985168457e+00,1.33061397075653076e+00,0.00000000000000000e+00,0.00000000000000000e+00,0.00000000000000000e+00,0.00000000000000000e+00,0.00000000000000000e+00,0.00000000000000000e+00,0.00000000000000000e+00,0.00000000000000000e+00,0.00000000000000000e+00,0.00000000000000000e+00,0.00000000000000000e+00,0.00000000000000000e+00,0.00000000000000000e+00,0.00000000000000000e+00,0.00000000000000000e+00,0.00000000000000000e+00,0.00000000000000000e+00,0.00000000000000000e+00,0.00000000000000000e+00,0.00000000000000000e+00],"parents":[2147483647,0,0,1,1,2,2,3,3,4,4,5,5,6,6,7,7,8,8,9,9,10,10,11,11,12,12,16,16,17,17,18,18,19,19,20,20,21,21,25,25,26,26,32,32,33,33,34,34,36,36,37,37,38,38,39,39,40,40,41,41,42,42],"right_children":[2,4,6,8,10,12,14,16,18,20,22,24,26,-1,-1,-1,28,30,32,34,36,38,-1,-1,-1,40,42,-1,-1,-1,-1,-1,44,46,48,-1,50,52,54,56,58,60,62,-1,-1,-1,-1,-1,-1,-1,-1,-1,-1,-1,-1,-1,-1,-1,-1,-1,-1,-1,-1],"split_conditions":[6.71706676483154297e-01,-4.83467698097229004e-01,1.32924079895019531e+00,-1.67621302604675293e+00,1.48332011699676514e+00,-1.36202812194824219e+00,2.04263292253017426e-02,-2.28827047348022461e+00,-1.11420941352844238e+00,1.13646674156188965e+00,1.47484099864959717e+00,-1.81496214866638184e+00,4.86981213092803955e-01,2.10223384201526642e-02,1.29489824175834656e-01,-7.52568524330854416e-03,-5.78199148178100586e-01,-1.50849390029907227e+00,-9.97113466262817383e-01,5.09139060974121094e-01,-1.73146772384643555e+00,-3.42313021421432495e-01,-6.02881498634815216e-02,3.16326394677162170e-02,1.21115840971469879e-01,2.21320688724517822e-01,1.16964876651763916e-01,1.20657570660114288e-01,3.32762151956558228e-02,9.46468859910964966e-03,-8.92987400293350220e-02,5.83319254219532013e-02,-1.44814276695251465e+00,2.61996477842330933e-01,-6.00670933723449707e-01,5.86651973426342010e-02,4.26276087760925293e-01,-1.03246998786926270e+00,2.25551891326904297e+00,-4.29891705513000488e-01,3.83245944976806641e-01,-6.92899286746978760e-01,1.48207354545593262e+00,-7.27710500359535217e-02,-2.51183081418275833e-02,7.88885226938873529e-04,-4.88277003169059753e-02,-3.79478000104427338e-02,5.53708225488662720e-02,-7.44732692837715149e-02,-1.87813397496938705e-02,8.57808291912078857e-02,-4.06469479203224182e-02,1.14034950733184814e-01,-2.30365637689828873e-02,4.56683151423931122e-02,-1.67791340500116348e-02,4.55103516578674316e-02,1.24588556587696075e-01,3.43604683876037598e-02,-8.07746201753616333e-02,-5.23572750389575958e-02,7.46527835726737976e-02],"split_indices":[2,3,1,2,3,1,3,2,0,3,1,1,0,0,0,0,0,3,0,0,1,2,0,0,0,0,1,0,0,0,0,0,3,0,1,0,2,2,3,3,0,3,2,0,0,0,0,0,0,0,0,0,0,0,0,0,0,0,0,0,0,0,0],"sum_hessian":[2.15406265258789062e+02,1.60954986572265625e+02,5.44512710571289062e+01,4.87677001953125000e+01,1.12187294006347656e+02,4.95476150512695312e+01,4.90365409851074219e+00,5.03559875488281250e+00,4.37321014404296875e+01,9.87136840820312500e+01,1.34736127853393555e+01,3.76956701278686523e+00,4.57780494689941406e+01,1.72910749912261963e+00,3.17454671859741211e+00,1.16816294193267822e+00,3.86743569374084473e+00,6.52026939392089844e+00,3.72118301391601562e+01,8.93417358398437500e+01,9.37194728851318359e+00,1.22596435546875000e+01,1.21396899223327637e+00,1.64431607723236084e+00,2.12525081634521484e+00,3.16135959625244141e+01,1.41644525527954102e+01,1.92665863037109375e+00,1.94077694416046143e+00,1.07451939582824707e+00,5.44574975967407227e+00,1.54993093013763428e+00,3.56618995666503906e+01,6.03093223571777344e+01,2.90324115753173828e+01,1.48186933994293213e+00,7.89007759094238281e+00,5.83859968185424805e+00,6.42104339599609375e+00,2.67910423278808594e+01,4.82255268096923828e+00,8.57522869110107422e+00,5.58922338485717773e+00,7.61698722839355469e+00,2.80449123382568359e+01,5.22795219421386719e+01,8.02980041503906250e+00,6.60746955871582031e+00,2.24249420166015625e+01,6.67712688446044922e+00,1.21295082569122314e+00,2.27468466758728027e+00,3.56391525268554688e+00,5.10382270812988281e+00,1.31722068786621094e+00,1.13840065002441406e+01,1.54070367813110352e+01,2.02253270149230957e+00,2.80002021789550781e+00,2.21773099899291992e+00,6.35749816894531250e+00,3.35351228713989258e+00,2.23571133613586426e+00],"tree_param":{"num_feature":"4","num_nodes":"63","size_leaf_vector":"0"}}]},"name":"gbtree"},"learner_model_param":{"base_score":"0.500000","num_class":"3","num_feature":"4"},"objective":{"name":"multi:softmax","softmax_multiclass_param":{"num_class":"3"}}},"version":[1,0,0]}